273 128
4 -0.00067032315 0.19415644 0.15229061 0.057808712 0.031521037 0.17586686 0.17872256 0.33259228 0.04258476 0.1172275 0.0737471 -0.051014576 0.12269143 0.0027913367 0.22287348 0.035446517 0.040534362 0.3413905 -0.29794943 -0.09964853 0.064282194 0.17906466 0.46393552 0.051115397 -0.38076347 -0.16605039 -0.18780962 -0.14669256 -0.02831646 0.17853318 -0.2120962 -0.097876206 0.015979832 -0.31716046 -0.21556322 0.06989701 0.43769363 -0.3247701 0.049401443 0.07947782 -0.12658969 0.11790839 -0.14736375 -0.43144664 0.124171555 0.17519444 -0.30559158 0.38274217 0.047070947 -0.01759308 0.20088719 -0.012621205 -0.11493377 -0.05665916 0.0082237255 0.20734766 0.21196514 0.2593432 -0.056867655 0.087984875 -0.23638134 0.1694778 -0.11340323 -0.14240089 0.21249104 -0.17629066 0.019375183 0.04654369 -0.16458279 -0.07392855 0.08684409 0.09698473 -0.119236745 0.03383066 0.1316586 -0.26576585 0.08310079 0.13663203 -0.14361662 0.15206307 0.06618213 -0.02642826 -0.010741607 0.12562373 -0.11215573 0.081810005 0.21022317 0.2862798 -0.013555115 0.30360064 0.07669343 0.023468921 0.07761307 -0.13857372 0.33796778 0.015608106 -0.22411121 -0.12629631 -0.11532286 0.07128367 -0.062674806 0.005764764 -0.060088202 -0.014473669 0.046302773 -0.2679711 -0.10250204 0.23373263 -0.15421356 -0.16876546 0.12488254 -0.20729299 -0.13740157 0.16101089 0.040560372 0.10872727 -0.01679151 0.1198748 0.027945638 -0.01265786 -0.21607988 -0.16761377 0.116403185 -0.11719611 0.12422147 0.15546282 -0.11516679 0.07487256
0 -0.21117648 0.3018997 -0.345819 0.1114004 0.21649793 0.1940204 0.13527249 0.22064789 -0.023529666 0.12410302 0.23473166 0.24173866 0.081710786 -0.43130323 0.02167284 -0.03125473 -0.29210046 0.43869424 0.18349327 -0.09884479 -0.022427483 -0.0084851915 0.13336799 -0.20360202 -0.38699144 0.05216464 -0.13713177 0.12187676 0.2600178 0.0703575 0.0021218613 0.107658155 -0.080916084 -0.053127967 -0.08870743 0.15003957 0.10094536 -0.007158966 0.09634071 0.09612193 0.1584341 0.14258356 -0.022059927 -0.121849336 0.16565886 0.257766 -0.054812834 -0.036737777 -0.08054114 0.027427265 0.286974 -0.02141617 -0.07968695 0.105125025 0.059278022 -0.21228664 -0.044116836 0.1395339 -0.12042833 -0.351749 -0.10749624 0.06360429 -0.0016710999 -0.032204695 0.3624972 -0.20300028 -0.15888059 0.1989412 -0.03313236 -0.12869269 -0.18626048 -0.19873755 -0.16382349 -0.15671651 0.06252961 0.08107604 0.034320462 0.2616498 -0.14073452 0.038501665 0.17381552 0.13238837 -0.12609535 0.13457511 0.39837366 0.21367303 0.21098891 -0.3221805 0.36464843 0.24330798 -0.031892426 -0.046223596 0.054782595 -0.14993663 0.05372838 -0.11211927 -0.10143554 0.001536709 0.26865104 -0.03449537 -0.24486585 -0.04603476 0.092357494 -0.109231986 -0.27895334 -0.25339657 -0.29774353 0.027555471 -0.3863782 -0.3290435 0.1332376 -0.47545248 -0.03589548 0.2192295 -0.15044414 -0.09909344 -0.05764079 0.05455302 0.18261844 -0.2395016 -0.29376101 -0.072325714 0.0147410715 0.0018051722 -0.08056679 -0.19281766 -0.22978209 -0.15443799
12 0.09299632 -0.24626663 -0.018886607 0.2901431 0.22617231 -0.13163537 0.23538731 -0.056382414 -0.55208623 0.31200954 0.16138697 0.1564587 -0.032843035 0.11912421 0.15283132 0.20905901 0.21471913 0.12712426 -0.15304466 0.24499603 0.39290315 0.35254955 0.2840589 -0.2749877 -0.41307774 -0.22084539 -0.29277948 0.32423475 0.37679082 -0.105501465 -0.27501747 -0.017456116 0.21600887 0.0637272 -0.04062414 -0.14362548 0.50486094 0.10447447 0.105823174 0.24988225 0.13041699 -0.02117699 0.3295925 -0.3644687 -0.05867814 0.16553812 -0.1715172 -0.042896617 -0.058442775 -0.051248252 0.45677546 -0.15840735 0.12269375 0.13429648 0.3739484 0.06696712 0.16592582 -0.07688575 -0.17226851 -0.16064167 -0.015743537 0.19838925 0.18108971 0.1349965 0.09003433 -0.10003959 0.17709413 -0.13259792 -0.36226615 0.11071015 0.15474941 0.1435985 -0.19489981 0.118994676 0.04442152 -0.09157676 0.038364563 0.23261553 -0.24117066 0.21740295 0.23367715 -0.058422014 -0.226457 0.15776317 0.42624325 0.01701199 0.2591451 0.32089972 -0.03540036 0.38209537 0.08248243 -0.2866455 0.087121494 -0.4584849 0.29504684 -0.097678274 0.14630863 -0.17268127 -0.028086305 -0.17593668 0.29936424 0.15564172 -0.15970407 0.22052795 0.19507593 -0.30550137 -0.011588916 -0.014613913 0.06229878 -0.24958284 0.18958104 0.055077143 -0.0037141396 -0.044857167 0.06959402 -0.13188742 0.07001981 0.27315336 0.12301295 -0.18766621 -0.10657227 0.10494918 -0.34343222 0.15176709 0.1698834 0.24744822 -0.24652876 0.15831849
41 0.029219909 0.094846345 0.045819297 0.20111008 0.20084758 0.12505433 -0.3027186 0.31025967 0.06930628 0.3555547 0.44625446 0.24123171 0.13077116 -0.16975604 -0.06647788 -0.19006398 -0.14392553 0.21914744 -0.13412087 0.121912755 -0.24687856 0.1353536 0.28520748 0.028647456 -0.5723289 -0.02200649 -0.20101324 -0.014175377 0.078572415 0.2489298 -0.18225151 -0.033369377 0.018544 0.01735535 0.016629413 -0.02125004 0.34139287 -0.24208862 -0.10966256 0.19351293 -0.19892123 0.051823378 0.005926818 -0.07840476 0.28321508 0.1229659 -0.08350219 0.070726335 -0.0053632115 0.17214748 0.33503222 -0.012852831 -0.33783573 -0.16015527 0.107791126 0.16782343 0.2001786 0.11848957 -0.1399884 0.14987756 -0.31173012 -0.017962255 0.05599496 -0.06841006 0.34740162 -0.26511 0.119650595 0.08505395 0.04677958 0.066614024 0.12758233 -0.15846774 -0.27594134 -0.33470437 0.1948742 -0.21703303 0.33532953 0.1856036 0.011227152 0.09482089 0.04769136 -0.014384573 -0.021512188 0.25718018 0.03073861 0.09575124 0.24399848 0.17037879 0.09609514 0.2824328 0.023085237 -0.09138653 0.22976632 -0.070912085 0.15401307 -0.28349608 -0.06252712 -0.32124707 0.3748349 -0.14390987 -0.23190741 -0.041410964 0.080683306 0.09114491 -0.20331301 -0.007929653 -0.18290792 -0.44726446 0.001506092 -0.34827244 0.0064425464 -0.28333175 -0.05177088 0.18580641 -0.20626913 -0.12451734 -0.49671444 0.19954784 0.18891793 -0.263336 -0.3226756 -0.1622104 0.22867747 0.117880434 -0.19336982 0.058932927 -0.25155434 0.0984295
45 -0.06608157 -0.31146383 -0.15965156 0.110419236 0.10342984 0.18560918 0.28517795 -0.14375229 -0.15739706 -0.03315252 0.31529132 0.27787745 0.03234887 -0.22428599 0.08752647 0.22405484 0.0015891239 0.3528636 -0.14008377 -0.11910897 -0.2049926 0.25347728 0.31923783 -0.031568773 -0.1442935 -0.0735541 -0.12418846 -0.029724475 0.31958604 -0.18715534 -0.046950046 0.027353318 -0.04348495 0.14519152 -0.011331254 0.5832972 0.4461038 0.30011845 -0.06850414 -0.16445974 0.11299075 0.39889264 -0.2060998 -0.28880864 0.19453022 -0.07350485 -0.074374184 -0.19829956 0.11857146 -0.006599029 0.16333397 -0.118745655 0.16635397 0.08792217 0.18722413 0.18390557 0.13677755 -0.39699098 -0.22961774 0.18503961 -0.072867535 0.27744406 0.021695685 0.085719526 -0.27636653 -0.008055153 -0.07833989 0.027703417 0.047325987 -0.12000955 0.18670939 -0.38156068 -0.21540716 -0.21698113 -0.1582335 0.14507626 -0.24674535 0.15921007 -0.079166986 0.51291615 0.016806837 0.14669095 0.30831894 0.27464712 0.30282724 0.072229475 0.12011711 -0.12991779 0.32311276 0.1562542 -0.09879047 -0.36889887 0.06359176 0.18874446 0.32597905 -0.15294519 -0.23175244 -0.06875443 0.07394508 0.11891054 -0.39110282 0.33242726 -0.2317986 -0.109245524 0.26285663 0.19533908 0.057427276 0.13144903 -0.32416883 -0.3067967 0.15624021 -0.27954012 0.21491532 0.23891228 0.0299478 -0.5179209 0.036187336 -0.15390724 0.2787521 0.020480419 -0.3674875 -0.3478145 -0.46683705 0.009705487 -0.17067537 -0.36175644 -0.6930599 -0.4186992
84 0.28958368 -0.110699296 -0.09400019 0.24659024 -0.11280018 0.12010562 -0.23359776 -0.042082798 -0.34541038 0.37824 0.11800228 -0.19105583 0.06274557 -0.20021269 0.05712603 0.06730466 0.018732833 0.1616525 -0.47983107 -0.089835 0.26899734 0.25393745 0.5152108 0.110570855 -0.1588806 -0.19763587 -0.3067974 -0.29676268 0.15151645 -0.09647516 -0.43844807 0.12360914 0.108881876 0.05973802 -0.26921606 0.06805837 0.78293544 0.25164053 0.3352185 0.15948808 0.07227093 -0.09395136 0.004269434 -0.3173751 -0.1475743 0.24653439 -0.08307243 -0.31894583 -0.25063807 -0.1392527 0.40318483 -0.17780188 -0.055435773 0.1202177 0.12390865 0.022337679 0.30764696 0.06387709 -0.2604278 0.024499808 -0.040004645 0.088417724 0.1791375 0.11522258 -0.009207512 -0.22452067 0.3100055 -0.04788813 -0.2880141 -0.3673923 0.10396109 0.003031963 -0.059039086 -0.14025208 0.13435113 -0.02048145 -0.064530395 0.2546608 -0.27917737 0.061596584 0.056753647 0.05111796 0.07912308 0.049422298 -0.103973374 0.49445498 -0.15463294 -0.14126383 0.062450584 0.28861582 -0.05458015 0.20194495 0.1956124 -0.31991446 0.35791183 0.18286131 -0.14898431 -0.29667643 0.056964695 -0.17030603 0.13781896 0.052989513 -0.057777148 -0.0036471 0.08413304 -0.4578839 -0.13166545 0.44334275 0.012434953 -0.29165852 -0.23295644 -0.08790725 0.15554142 0.047429282 0.074940205 -0.16831607 -0.2084915 0.11158811 -0.041607305 0.14515449 -0.052971527 -0.2564819 -0.06502397 -0.07442503 0.2940809 0.39853093 0.05448447 0.3030766
11 -0.081633694 0.09619027 -0.35885382 -0.080999315 -0.14359288 0.030158702 0.100142196 0.23944978 0.20065913 -0.019503368 0.20496216 -0.11188379 0.085942276 -0.12684862 -0.018675711 -0.040848635 -0.17404814 0.44985712 0.26921746 -0.09761401 0.25611314 -0.020053206 0.3063427 0.12568715 -0.44013843 0.23112923 -0.23685962 -0.011050833 0.11333865 -0.08319786 -0.24576558 0.16071157 0.052819356 -0.040359274 0.26602337 0.36063161 0.44253784 0.11841054 0.09812588 0.06950125 0.17373122 0.15286529 -0.062720194 -0.20764785 0.40037012 0.11488383 -0.033072256 0.082894236 -0.07093684 0.19307034 0.053268827 -0.007576365 -0.039453413 0.2512972 0.44867545 -0.14203422 0.25749364 0.49428463 -0.08284333 -0.09942522 -0.3020624 -0.014311296 0.28047767 -0.35030887 0.23414771 0.1646136 -0.008660337 -0.08335117 -0.030144667 0.07709206 0.17842142 -0.22397973 -0.1342813 -0.18505846 -0.06190303 -0.05349371 -0.16667983 0.24292985 0.05501189 0.3190915 0.04047654 -0.13147815 0.17438415 0.100428924 0.45207763 -0.0643129 0.3433626 -0.1735571 0.1614887 0.2559928 -0.21380694 -0.19857408 -0.19918367 -0.15071967 0.34917778 -0.17315744 -0.24360551 0.044973966 -0.012967373 0.05477636 -0.025443109 0.30352408 -0.37132606 -0.007895819 0.17453681 -0.010460501 -0.23118833 -0.0202272 -0.49553522 -0.4015362 -0.15057144 -0.22011906 -0.36564976 -0.16055115 -0.01281429 -0.17196837 0.098280914 -0.085444875 0.19402575 -0.22913079 -0.07504049 -0.1457283 -0.2776358 -0.008024279 0.19088745 -0.029925061 -0.20503701 0.31090027
2 0.06559509 0.3627083 -0.00051831757 -0.013824717 -0.36901018 -0.09969483 -0.31817105 0.26092273 0.03367681 -0.054143913 0.24801956 -0.08674149 0.18148808 -0.32902387 -0.015818661 -0.069341704 -0.22027212 0.2495118 -0.09298333 -0.004077368 -0.07229731 0.0679846 0.25122082 0.1112899 -0.35527247 0.03694583 -0.29683632 -0.13502568 0.103181444 -0.010286001 -0.55606997 0.3447701 0.12495997 0.008553457 0.06923433 0.5061103 0.33019975 0.1915174 -0.11609999 0.13957247 0.0785689 0.1206295 -0.12030258 0.021430725 0.24223125 0.20894478 0.036958806 -0.3815515 -0.12953758 0.13864326 0.38188177 -0.011888451 -0.24623176 -0.02025746 0.16936958 0.02339093 0.055312004 0.50150925 -0.35000652 -0.103369005 -0.4177528 -0.016570626 0.21085368 -0.08074836 0.39602235 0.05283338 0.2029222 0.045918155 -0.20338137 -0.214156 -0.19945237 -0.23678015 -0.27255866 -0.3519758 0.06351899 -0.05276515 -0.039763004 -0.024638023 -0.17499627 -0.0027139068 -0.019724047 -0.0924012 0.33443967 0.12756129 0.27569392 0.051412303 0.09934195 -0.17774345 0.27502662 0.31669962 -0.30719888 -0.04281814 -0.02966685 -0.038447887 0.31037056 0.10384261 -0.14067264 -0.12030308 0.2315159 -0.34992704 -0.3243033 0.12062215 -0.07799706 -0.08357576 -0.09812939 -0.26526633 0.18178898 -0.26337826 -0.51329595 -0.3778111 -0.08914843 -0.11380923 -0.03206681 -0.045036025 0.20229077 -0.23065254 -0.0866519 0.09115884 0.22410893 0.14094281 0.014085283 -0.27228147 -0.06318038 -0.3096708 0.031237682 0.048445825 -0.15985483 0.07427177
199 -0.10920305 0.16507986 0.0030006862 -0.014967336 0.16199753 -0.037602805 -0.33514363 0.22548303 0.054075327 0.4104286 0.3624871 -0.003923315 0.23029606 -0.18345757 -0.22256516 -0.22536136 -0.16742168 0.12822667 -0.293703 0.35212192 -0.11946095 0.15130033 0.37939182 0.005501185 -0.5838977 0.11086783 -0.18872221 -0.1370675 0.009431149 0.3150754 -0.338048 -0.15510996 -0.06730194 -0.104300626 0.10259936 0.0609127 0.40114284 -0.2961477 0.067235455 0.24833567 -0.24988112 -0.11808097 -0.2536098 -0.19421071 0.29447526 0.07898778 -0.21927351 0.21108149 -0.19551598 0.19631933 0.42927682 0.053164583 -0.15906854 -0.1326001 -0.12046797 0.3669005 0.13563855 0.36280346 -0.024781909 0.094301105 -0.38171482 0.19191033 -0.035151005 0.059559945 0.32520124 -0.10157163 0.24622853 0.044689626 -0.11024249 0.1080723 0.06344194 -0.23676923 -0.18310568 -0.2158831 0.1543122 -0.36974582 0.09694113 0.07372609 0.04911293 0.18145622 0.06662229 -0.061558124 0.06355638 0.37182015 0.053069204 0.1005233 0.39643756 0.26710504 0.18940917 0.16901156 0.103283495 -0.03578944 0.012753224 -0.20227093 0.34261853 -0.24295515 -0.11807541 -0.5153008 0.2082486 -0.22365503 -0.18222454 -0.006865355 0.030947082 0.31953895 -0.09132654 -0.11647761 -0.21706472 -0.30294722 -0.2501449 -0.27593523 -0.021707242 -0.05234716 -0.09767977 0.2001078 0.042507943 -0.26153868 -0.36168724 0.1492815 0.33287227 -0.113033585 -0.12606841 -0.28514725 0.15971644 0.044437166 -0.20573133 0.033293363 0.121848516 -0.030602774
56 0.28959492 -0.033383835 -0.06159789 -0.015499354 0.082355455 0.09784564 -0.11698599 -0.17411643 -0.30382523 0.13178375 0.15748483 -0.3100926 0.19609231 -0.06023148 0.1468476 0.30828813 -0.20872775 0.29611963 -0.23684265 0.18860699 0.3732066 0.13315582 0.348847 0.2512266 -0.26559663 -0.21558759 -0.2549536 -0.1607628 -0.0871381 0.26976502 -0.45563275 -0.029910302 0.16343376 -0.28766164 -0.23068193 -0.104824275 0.6044276 0.14043067 0.4281244 -0.09007746 0.10128559 0.07695284 0.33843365 -0.27876893 -0.3910491 0.10067134 -0.20229162 0.021632574 -0.05028461 0.18569848 0.28569636 -0.11099499 -0.1175221 0.299467 0.055932965 0.3765299 0.23110384 0.11870984 -0.6021045 0.15964085 -0.21675049 -0.017921736 -0.09238391 0.08779631 0.19810781 -0.2360109 0.0809129 0.15841621 -0.043725237 0.06524257 -0.14363731 0.038987603 -0.08694763 0.09113562 0.102222346 -0.20836794 -0.20687203 0.1526205 -0.19358385 0.16633356 -0.10535174 0.055316985 -0.06824666 0.04566719 -0.07357949 0.35060742 0.27794087 0.24311955 0.074048355 0.19580014 -0.18603486 -0.03279997 -0.4031649 -0.08845751 0.4485117 -0.28284627 -0.08228391 -0.19783805 0.07828209 -0.1757521 0.3112254 -0.12941259 -0.18277708 -0.2664405 -0.1050729 -0.14241719 0.096748464 0.5074844 -0.22829057 -0.27269253 0.13333257 -0.38075837 0.012579518 0.02443094 0.2605277 0.06386123 -0.23855308 -0.02864548 0.5101059 0.05683226 0.17627993 -0.16270557 -0.19395325 0.072333835 0.079174325 0.32535067 -0.323646 -0.006980175
38 0.18641998 0.0955317 0.4142421 0.3300219 -0.28605276 -0.10661907 0.27184993 -0.14747055 0.12274564 -0.0015980467 0.10089468 -0.07540694 0.2547465 -0.17235391 0.26428172 0.083433785 0.2114793 0.48100626 -0.27036214 0.2450113 -0.026902625 0.48211467 0.0787375 -0.18594104 -0.21608785 -0.24725936 -0.46038106 -0.2199447 0.35334507 0.2312736 -0.34486145 0.19457772 -0.12389622 -0.30266118 -0.06548645 0.2705978 0.6956193 0.2254335 0.009357424 0.074502125 -0.1132256 0.22502926 0.02806845 0.006886995 0.21796356 0.40350407 -0.45224196 -0.22538729 0.069007374 0.1035554 0.6075503 0.25319007 -0.1698346 -0.10088434 0.14926152 0.08968865 0.11370236 0.5495838 -0.12788363 -0.16112615 -0.5501329 -0.14848302 0.07252492 0.1724025 0.13080426 -0.06744497 0.108565874 -0.28279832 -0.0015733336 -0.16056588 0.06658481 0.056483794 -0.56069416 -0.010622163 0.15853116 -0.23393132 0.31090313 0.05078615 -0.058024928 -0.09283748 0.21186073 -0.14420724 0.24226587 0.5726723 0.26815492 0.17675519 0.1534746 0.093578 -0.0986283 0.22802433 -0.3006797 0.1830619 -0.12111166 -0.02230421 0.44983637 0.45640454 0.027329294 -0.17338328 0.15544069 -0.027993713 0.28209135 0.13643633 0.12410859 0.18871099 0.005703153 -0.16329907 0.15550323 0.43404737 -0.12622578 -0.35965943 0.4235897 -0.01735235 -0.19578972 -0.02880784 0.17233229 0.04412524 0.082117766 -0.059602387 0.11091476 0.15183523 0.35390335 -0.33565167 0.09739708 -0.34910846 0.31948718 0.3870455 -0.124327 0.28240073
14 0.20362417 0.079980865 0.1382004 0.12903021 -0.41168195 -0.058655858 0.07972321 0.28968427 0.29205352 0.34704483 0.2659544 -0.07069242 0.16282071 -0.09055894 0.135723 -0.0037750525 -0.18281856 0.43514234 0.14129518 -0.0050712107 0.1930492 0.29584894 0.22994947 -0.037358735 -0.43238398 -0.21865572 -0.48841965 -0.1838389 0.14184964 0.16208398 -0.35029894 0.15491065 0.232163 0.016932178 0.20781276 0.31484872 0.35163525 0.19454601 -0.18358372 0.14728844 -0.07977217 0.15262596 -0.022824856 0.04880655 0.20911111 -0.13506097 -0.4731764 0.064813174 0.19361433 0.35729957 0.33538675 0.19267248 -0.36056754 -0.02962667 0.3076873 0.1800035 0.037889507 0.4398085 -0.20789622 0.06554069 -0.2330752 -0.05583856 0.046955463 -0.28923535 0.21735574 -0.124960236 -0.1948773 -0.060118172 0.16103075 0.10295062 0.0179468 -0.089177825 -0.2970489 -0.2029823 -0.07109286 -0.23910145 0.19206406 0.08001041 0.11874224 0.19780102 -0.10470605 0.0033257762 -0.004745676 0.23974438 0.31428126 0.074649096 0.42478597 -0.1958085 0.15614766 0.5813913 -0.21842311 -0.10970778 -0.0011472402 -0.08555164 0.4412874 0.14358112 -0.06263898 -0.104033895 -0.081730686 0.30338627 0.00951072 0.35000563 0.1462972 -0.21474098 0.10867567 0.0526397 -0.22419617 -0.26889986 -0.45352829 -0.30689734 0.027333908 -0.07851359 -0.3883243 -0.1274634 -0.15829423 -0.06940524 -0.23676513 0.16454534 0.06602502 0.0062053874 0.005661928 -0.18759315 -0.056135513 -0.4173237 0.009427481 0.37708518 -0.19195735 0.3197701
57 0.04639419 0.007791448 -0.31416962 0.39444697 -0.03239153 0.08051977 0.04295041 0.08389198 -0.1694972 0.226524 -0.015811624 -0.4525978 0.13831641 -0.03084857 0.16895543 0.21516259 -0.045272358 0.17664288 -0.25292578 0.2639949 0.3384711 0.3668619 0.5751555 0.18083362 -0.30081677 -0.073239796 -0.1447873 -0.06418119 0.36576828 -0.15729547 -0.29652944 -0.039114244 0.14988592 -0.13336237 -0.199748 0.047740668 0.57492906 -0.069778636 0.27521977 0.10717452 -0.07926137 -0.2104225 0.049078226 -0.47578853 -0.15883167 -0.0046856073 -0.40009367 -0.054551113 -0.08595824 0.24340838 0.4102356 -0.32921848 -0.1165373 0.14784634 0.04995391 0.2796729 -0.050716847 -0.13376756 -0.4012655 0.060782965 0.0025423025 0.0072288513 0.120334536 0.010984493 0.13637899 -0.4692354 0.14076096 -0.017825777 -0.20050919 0.04852583 -0.13632101 0.09111124 -0.114654526 0.060578477 0.05588786 -0.37100613 -0.13956456 0.13536245 -0.28161114 0.38638997 -0.021407016 0.040195268 -0.05778646 -0.27789357 0.41980043 0.12450911 0.21123403 0.33569533 0.17789765 0.3607917 -0.014913765 -0.17012987 0.082540944 -0.21501553 0.5031425 -0.09880808 0.1526281 0.029528752 -0.10802996 0.10701812 0.33198294 0.20965984 -0.35973948 -0.054228324 0.097261585 -0.13386601 -0.07893698 0.16526328 -0.008552162 -0.24144794 -0.09642722 0.06348601 0.1792911 -0.01001131 0.16096771 -0.017273745 -0.24313521 0.2273445 0.18286385 -0.10704613 -0.10981859 -0.014688613 -0.20908022 -0.038270667 0.47410288 0.26652014 -0.011647853 0.15470885
172 0.21925512 -0.055567894 -0.025958564 0.12423449 0.02547832 0.08705772 0.16584621 0.30860344 -0.22094283 0.31949878 0.16367385 -0.22375928 0.16109891 -0.16840772 0.3677273 -0.14894912 0.00773768 0.057784766 -0.39598477 0.03802469 0.14471559 0.15053321 0.33900344 0.015212075 -0.41241002 -0.25670958 -0.048156653 0.14157887 0.30704397 0.10737465 -0.43708748 0.2909364 -0.061625887 -0.027458103 -0.35397384 0.07020069 0.4593925 -0.06829027 0.19523765 0.09605795 -0.0065091457 -0.013696155 0.4630486 -0.34401616 -0.16594157 -0.024109567 -0.556612 0.0027825336 0.09635606 0.16205963 0.3586077 -0.4186194 0.116507635 0.014478518 0.3855366 0.011236114 0.37576172 0.080412716 -0.14691877 0.13053145 -0.0042180205 0.002020156 -0.098771155 -0.08130558 0.095465794 -0.1619126 -0.15040253 0.0028521118 -0.1560965 -0.1609591 0.120410174 0.23229162 -0.16288805 -0.019783141 0.19813496 -0.47317538 0.091519885 0.25368956 0.0527844 0.37076315 0.053835228 -0.09021211 -0.3407517 -0.14859514 0.35204402 0.16697901 0.4198696 0.50567013 0.3552941 0.25558528 -0.026329428 -0.07923376 0.1316759 -0.16528228 0.49018413 -0.021855766 -0.10124478 -0.051952213 -0.20991246 -0.023199897 0.33063218 0.17057641 -0.24694201 0.1180282 0.045735404 -0.3119122 -0.24349757 0.13383202 0.005568054 0.11700741 0.110736616 0.03387341 0.27891117 0.146494 0.06430322 0.25098565 -0.38960534 0.29390013 0.20976618 -0.3434086 0.018294245 -0.13448617 -0.19604987 0.22255152 0.12130744 0.2501708 0.05450702 0.08906387
61 0.38591263 0.03197471 0.1916151 0.6666047 0.11392677 -0.057233278 0.23334393 -0.3764418 -0.23641253 0.16752473 0.030978985 0.08965331 0.37939763 -0.30413124 0.20735888 0.43702447 -0.48006326 0.0032403579 -0.5136 0.52761286 0.29590002 0.57828116 0.25395337 -0.15919816 -0.435959 0.054486126 -0.40836698 0.22431202 0.5201564 -0.14855959 -0.61235106 0.074989505 0.2644756 0.12780146 -0.47970852 0.11527755 0.68620956 -0.087068565 0.26375988 0.13842358 -0.16112538 0.21484426 0.074762315 -0.13876522 0.14661624 0.47613224 -0.14388213 -0.6049227 0.11228948 -0.116483174 0.8405231 0.20760457 -0.27440903 0.23132594 0.04693691 -0.04215029 0.709946 -0.100677595 -0.5582849 -0.19051601 -0.3662665 0.06756547 0.31309026 0.3162289 0.011371868 -0.1289989 0.6084077 0.07870346 -0.07385004 -0.0027037913 0.09629641 0.41667023 -0.4398515 0.18490247 0.26403776 -0.005310134 -0.11863825 0.08716158 -0.15448734 -0.07986138 0.11155575 -0.049491018 0.44532156 0.26104364 0.19289577 0.54146445 -0.25215957 -0.060295194 -0.13510627 0.044446774 -0.27393308 0.10193167 0.07107039 -0.20728274 0.3418507 0.060703035 -0.120017186 -0.4363993 0.18581331 -0.118388325 0.52685356 0.30224332 0.13056183 0.28459385 -0.03270551 -0.093195215 0.4762913 0.6966597 0.19342133 -0.16089672 0.08563068 0.08058499 -0.16077463 0.22904934 0.585564 -0.09114286 -0.0018008652 0.11278215 0.1478594 0.010538074 0.32613412 -0.094908506 -0.16545112 0.08505107 0.37633854 0.16127501 -0.42790762 -0.038506474
181 0.11992466 0.029869923 -0.34359908 0.26751336 -0.05286832 0.16067493 0.06446005 -0.13104175 -0.06962327 0.34356406 0.0026320536 -0.3583754 0.13188794 -0.10740722 0.08665203 0.19154078 -0.079305686 0.067702785 0.026686499 -0.0072455653 0.1568771 0.36609223 0.5415466 0.3109741 -0.28713804 -0.062130902 -0.19117905 -0.03651332 0.31259197 0.17196585 -0.12343589 -0.1943313 -0.049731467 0.0005677348 0.2236303 0.15137592 0.4448103 0.29925707 0.2931023 -0.08242114 0.14397663 0.02529047 0.13813707 -0.22831717 0.1167147 0.15876453 -0.17169204 0.02419994 -0.026487403 0.21285968 -0.050672878 -0.16900885 0.13636646 0.12894194 -0.02120309 -0.11041502 0.16478488 0.29723912 -0.25251275 -0.08795989 -0.19517021 0.06227938 0.070138656 0.063400105 0.24798952 -0.0008230162 0.17032443 -0.3555298 0.04511798 0.0039339187 0.028193308 -0.14045283 -0.121449836 0.2722694 -0.146401 -0.2820866 -0.09491187 0.4097758 -0.090590015 0.63797444 -0.05789659 0.03042147 -0.19578855 -0.04195225 0.4246026 -0.0067506963 0.2695698 0.061557252 -0.07119021 0.4026173 -0.1339885 -0.12188935 0.0005907617 -0.14003082 0.32899827 -0.20677109 0.008843628 0.2728029 -0.042648338 0.051453695 0.16327487 0.25615513 -0.3995351 0.011355179 0.093727216 -0.34818769 -0.04084091 -0.11668661 -0.41333616 -0.16832647 0.1349371 -0.08008709 0.035807267 -0.032653194 -0.101718135 0.026378749 -0.07296958 0.26288047 0.31601608 0.04919526 -0.001565142 -0.163301 -0.3157455 0.113686 0.31184465 0.043804016 -0.38924918 0.21740918
1 0.07788246 0.03670312 -0.34671035 0.06975723 -0.033203356 -0.073554784 0.1000795 0.09379213 -0.07860891 0.026038088 0.23724532 0.19764797 -0.08525715 0.03353084 0.15048213 0.00085538387 -0.3192405 0.43572947 -0.0410429 -0.01077383 0.39523736 -0.050395492 0.22889216 -0.18505372 -0.31155178 0.10407078 -0.33379045 0.14928587 0.203621 0.036999352 -0.16273424 0.052409567 0.09980208 -0.058527507 0.058917146 0.13901582 -0.055072255 0.19870582 -0.010656792 0.17999375 -0.13439338 0.16223234 0.19555089 -0.23758934 0.04953626 0.20012082 -0.053860284 -0.11494936 -0.13552736 -0.11335944 0.07121902 -0.07512288 -0.09344959 0.10109849 0.28141412 -0.0638898 0.23776573 0.18798697 -0.052696574 -0.16964436 -0.2355128 0.2134851 0.026758166 0.029949367 0.42269763 0.19749314 -0.12737842 -0.059087064 0.057128124 -0.092458434 0.16079517 0.09842297 -0.21720493 -0.17300074 0.07538946 -0.06306692 -0.093078405 0.41294315 -0.2986299 0.10851251 0.14115143 -0.1865151 0.1847436 0.031591438 0.3795166 -0.11410415 0.27534047 -0.5225771 0.25038046 0.333816 0.15407923 -0.24379708 0.009670744 -0.48977137 0.442311 -0.13267231 -0.17824513 -0.096198946 0.1190711 -0.004924209 -0.13424589 0.121886685 -0.19666258 0.0290552 -0.35671788 -0.4013317 -0.41390225 -0.33511323 -0.25254992 -0.29189414 0.093707286 -0.20921296 -0.19696568 0.12946057 0.04180152 -0.0869456 0.1518052 0.022099357 0.034768153 -0.21144831 -0.29021603 0.19971836 -0.21811695 0.16743974 0.09409689 -0.19794731 -0.24573834 0.17517401
77 -0.16475496 -0.06796596 -0.08138255 0.36923927 -0.10628361 0.015387185 0.15294819 0.22883146 -0.28566283 0.49641535 0.1963226 -0.3659434 0.20902103 -0.047079127 0.33744547 0.15580495 -0.15054059 0.13870473 -0.24129894 0.045407306 0.4441513 0.28114703 0.32655007 0.18568414 -0.5744541 -0.02971956 -0.09539013 0.20410994 0.38000464 0.06322182 -0.14208399 0.035500728 0.050845757 -0.14699645 -0.20371975 -0.19940735 0.79211044 -0.1807644 0.28494415 0.05181349 -0.06280764 0.029608697 0.23289825 -0.26708037 0.14824037 0.4432112 -0.366579 0.055245463 0.12327793 0.07125715 0.23543423 -0.042370662 0.105035156 0.15257306 0.2890818 0.2837462 0.10857841 0.235889 -0.2801187 0.091140166 -0.114292994 0.14100152 -0.08218663 0.36650807 0.27980065 -0.06260641 0.040230688 0.100167416 -0.30751517 -0.1564295 -0.025866764 0.21840961 -0.16010849 0.123279974 0.3613935 -0.4125914 -0.20018606 0.35391486 -0.0046835565 0.5187583 0.0057356106 -0.17235053 -0.055875834 -0.16352741 0.16773222 0.071288235 0.21193902 0.4037235 0.046664774 0.10804493 -0.15308578 -0.013729448 0.09321546 -0.137706 0.31143245 0.15982977 -0.04064873 -0.31559676 -0.2438306 0.16505975 0.27382013 0.21201624 -0.30402482 0.085306704 0.16813003 -0.08747886 -0.06562087 -0.042308662 -0.17843574 0.12038867 0.056899343 0.062707625 0.10994567 0.15689354 0.07723955 0.0091700265 -0.3192491 -0.09796206 0.29539075 -0.26863897 -0.060139764 -0.0540283 -0.013854898 0.24715395 0.04421274 0.19109073 0.1300174 0.013610467
113 0.10967949 -0.16631652 -0.04364339 0.24801487 0.15649953 0.17278007 -0.48240444 0.25049245 -0.18311718 0.39209336 0.15321274 0.056654677 -0.0024745632 -0.21195224 0.20294587 -0.12164387 0.035919756 0.16948473 -0.60592324 0.19459565 0.069945715 0.47063318 0.4350529 0.18667121 -0.2467391 -0.18461153 -0.13174155 -0.05941927 0.09259959 -0.19723248 -0.32680687 0.011304878 0.16598038 0.11696735 -0.40962857 0.08477965 0.49634337 -0.05878808 0.2328883 0.03184453 0.062711254 -0.32634205 0.03823235 -0.13470167 0.08232816 0.39415133 -0.22553231 0.14428501 0.07423725 0.12561151 0.24665745 0.065537654 0.14314128 0.29325128 -0.022635132 -0.0065992316 0.5176032 0.097546406 -0.20968676 0.31871268 -0.33495086 -0.045909435 0.38855934 -0.17734396 0.24919297 0.100461096 0.19467945 0.013507373 -0.29273176 -0.32303303 0.23399296 -0.005620492 -0.050215077 -0.12816742 0.10091363 0.040757094 -0.19422981 0.18594308 -0.45815876 0.42933962 -0.14827144 0.12612945 -0.13562033 0.29237944 -0.13525619 0.56923616 0.18293038 0.121293746 -0.003483215 0.41921338 0.022331906 0.1788484 0.35058293 -0.15153572 0.36577436 0.4208424 -0.45616522 -0.17353384 0.09050766 0.047579687 -0.013114801 -0.23744404 0.33495626 0.027961118 0.17062502 -0.60284346 0.088571616 0.66674036 -0.09867306 -0.09443732 -0.31665483 -0.4773118 0.24358065 0.4092072 -0.3009601 0.0045690886 -0.3638611 0.36922374 -0.07389328 0.29840958 0.052689515 -0.38596225 0.103733525 -0.14737608 0.118066296 0.10868931 0.059063192 0.4835136
107 -0.12756093 -0.06929842 -0.35306457 0.11804271 0.13580719 0.000996265 0.20596837 -0.29493698 -0.17361847 0.221743 0.44122496 -0.016369948 0.1582904 -0.37443745 0.04734407 0.37692833 0.03999864 0.20327266 -0.024092857 0.07367109 -0.061985057 0.29114708 0.2587715 0.04408898 0.019993694 0.24583572 0.092699744 0.2835506 0.36821488 -0.21697104 -0.2656982 0.052747134 -0.04617294 -0.11008792 -0.42715648 0.310281 0.4342872 0.4262009 -0.019143438 0.0556986 0.06040332 0.044635992 0.064149134 -0.5657994 0.17350796 0.31342924 -0.050995246 -0.19124992 -0.07583775 -0.27385575 -0.056780152 -0.12348292 0.28899467 -0.18975466 0.15285704 0.09034973 0.0711191 -0.10125096 -0.039191436 -0.32122195 -0.08979549 0.21161942 -0.06848278 0.06400753 0.11899057 -0.17237587 -0.04409159 -0.29783994 0.07627324 0.08030618 0.09810362 -0.29928648 -0.18721959 -0.08426999 -0.08284873 0.09354428 -0.110148884 0.5342226 0.0005406438 0.4443034 0.12524588 -0.00075297465 -0.10430977 0.27343687 0.37141737 0.058439508 -0.053025883 -0.05361292 0.4854938 0.00069198385 -0.038837664 -0.35767412 0.18648079 -0.13143283 0.31213608 -0.15162697 -0.2507262 0.38310525 0.23366489 -0.09798779 -0.25765872 0.10215134 -0.20820478 0.29983106 0.12270089 -0.14329337 0.03005675 -0.14000113 -0.45263442 -0.4074775 0.4432496 -0.185701 -0.007309914 -0.12253 -0.058524992 -0.3309306 0.0067899697 -0.118577875 0.013124501 -0.1860985 -0.37087205 -0.031534016 -0.21269302 0.25664103 -0.13603567 -0.32611194 -0.7061218 -0.14373651
89 0.038533367 0.05269792 -0.13223344 0.041272372 0.2834695 0.14852297 0.23614928 0.120135166 -0.15753081 -0.040963303 0.19211903 0.009661975 -0.22429986 -0.13031363 0.091551065 -0.21527755 -0.47648877 0.54244024 0.107431985 0.18309961 0.32877898 0.051923778 0.28786078 -0.10929823 -0.43839037 0.118862845 -0.14852045 0.44546682 0.17919005 0.21667983 -0.50689626 -0.04466925 0.14281212 -0.2561789 -0.093605936 -0.08586607 0.022451505 0.088301584 -0.12674843 0.34095845 -0.1426953 0.29272208 -0.0048109745 -0.063230276 0.3455599 0.4423418 0.17564331 -0.005514007 -0.40067065 0.12060805 0.17594163 0.07478388 -0.02916357 -0.0027012622 0.41085726 -0.09822986 0.11232013 0.10491091 -0.017180892 -0.30860266 -0.22480452 0.22414865 0.19437186 -0.0804906 0.14754125 -0.027633859 -0.20684858 0.20301472 0.05682254 -0.03731372 -0.052324396 -0.085457385 -0.20679049 -0.042744532 0.018601837 -0.085226245 -0.07049132 0.39959618 -0.2974054 0.064738035 0.17913568 -0.049001865 0.02023134 0.1631262 0.3531809 -0.1782328 0.39197254 -0.44891986 0.48174122 0.20217453 0.028458372 -0.16219355 -0.12924542 -0.2709413 0.30724442 0.08974581 -0.16460152 -0.15444246 0.017344184 -0.1381245 -0.17355628 0.05415951 -0.067590326 -0.021381494 -0.47026056 -0.27702793 -0.20504822 -0.2621302 -0.34984177 -0.20369948 0.15784231 -0.45157754 -0.014482047 0.16422683 -0.2161244 -0.12706295 0.3495025 0.077692516 -0.10008514 -0.10216282 -0.24792793 0.16720451 -0.26313606 0.17825778 -0.024954233 -0.1943358 -0.42085242 0.3016787
28 0.1665858 0.102124736 0.12918386 0.2826314 -0.021269727 -0.16389757 -0.049892657 -0.33597082 -0.29965937 0.08251891 0.07627287 0.080039084 0.3466452 -0.037461266 0.14222498 0.39594558 0.14065701 0.18696758 -0.26698872 0.23415768 0.18513131 0.49847892 0.23193644 -0.097958416 -0.1978337 -0.19291312 -0.17283536 0.042174004 0.24359193 -0.1622436 -0.422928 0.05544389 0.10337437 -0.024312722 -0.27406034 0.0947092 0.50379366 -0.058708444 0.13967645 -0.008490998 0.13026418 0.058044065 0.14491995 -0.17067818 -0.13429803 0.3638685 -0.09293963 -0.49696243 0.028436216 0.031700656 0.6629965 -0.11142187 -0.1572461 0.02454305 0.20349258 0.008037031 0.32606965 0.071904674 -0.54554254 -0.24360408 -0.15143637 0.13394971 0.21872091 0.011227035 0.11900205 -0.46494707 0.36761302 -0.12111134 -0.06553657 0.010687564 0.06823781 0.1591177 -0.35644355 -0.03624591 0.09352544 -0.11046174 -0.038279057 -0.041915633 -0.36601728 0.0033766758 0.04855765 -0.088844076 0.10381648 0.09489235 0.32585615 0.23494132 -0.0457632 0.0523058 -0.17622983 0.09487781 -0.18265869 -0.1152637 -0.19957528 -0.095081694 0.47132683 0.29150733 0.052196905 -0.31216797 0.074878246 -0.10523734 0.39401704 0.13656522 -0.03782042 0.051307004 0.15243213 -0.33840656 0.38453802 0.5778087 -0.084659725 -0.18481988 0.035283513 -0.132085 -0.14434396 0.15507247 0.24291216 0.027588008 -0.14500462 0.21899128 0.09377911 -0.12305195 0.15665025 -0.06227998 -0.30297607 -0.194814 0.37753627 0.46227664 -0.37862498 0.19284743
195 0.1167154 -0.26867163 0.83344084 0.21351431 0.19194067 0.6169531 0.3706135 0.41197923 -0.35673434 0.35610005 0.0886967 -0.096122146 -0.43351614 -0.28328475 0.49574068 0.12762423 -0.1331548 0.036151312 -0.5927072 0.68381345 0.22050938 0.18789296 -0.016131978 -0.65734744 -1.0105081 -0.060480744 -0.36020124 0.2096067 0.38885885 -0.18943425 -0.6946643 0.8403677 -0.24423982 0.38470665 -0.7382404 0.5825303 -0.20495759 -0.68352336 0.25522986 0.29224026 -0.522205 0.18451625 -0.5211747 -0.35993513 0.22721049 -0.06443369 -0.4222468 0.25903982 -0.47758675 0.4378121 0.3675659 -0.18154058 0.4355625 0.3463046 0.22678348 -0.15734932 1.0002419 0.06826671 -0.32725322 0.040289946 -0.48773527 0.0395949 0.15997493 0.20120396 0.52411807 -0.22503911 -0.18990436 0.73924553 -0.111840926 -0.019182593 -0.056400884 0.4831805 -0.55318516 -0.019241491 0.022851994 -0.18213809 -0.86335695 0.67121595 -0.22254929 0.3797685 -0.5119848 -0.3136822 0.6334294 0.6842949 1.0001433 0.8864606 -0.31782603 -0.6666158 0.22119386 0.38218245 -0.15229164 -0.35367447 -0.37710288 -0.25882563 -0.16910183 0.091023296 -0.62966186 0.14873421 -0.068452895 -0.52098703 0.5143374 -0.29052505 -0.61985177 -0.11833802 -0.058426503 0.38630292 0.15425073 0.7715149 0.37107584 -0.48827374 -0.20863003 -0.043219205 0.030829018 0.031748 -0.21890238 0.12614481 -0.18529621 -0.20504989 0.83703446 -0.22619882 0.14021783 -0.7518155 -0.35232615 0.8316737 -0.80958927 -0.1711553 -0.5073433 0.28636035
68 0.37656996 0.15500839 -0.17314486 1.0253606 0.15207666 0.1621788 0.16443327 -0.48125246 -0.9941044 0.7682978 0.015008008 0.21012491 0.6010935 -0.0661802 0.6658691 0.15193562 -0.6737967 0.09164723 -0.47205678 1.1936367 -0.015040078 0.5834017 -0.0059714676 -0.2913783 -0.7189972 -0.25138682 -0.8051617 0.006173788 -0.11886764 -0.3587236 -0.61173403 0.29263538 0.60675204 0.24967468 -0.361544 0.83760005 0.04242898 0.23541722 -0.846771 0.45093524 -0.5523504 0.7181873 -0.36872563 -0.13019425 0.21659061 0.444279 -0.33559394 0.23633151 -0.34289587 0.6873519 0.35714492 0.5018107 0.21586642 -0.39342213 -0.101848 0.19805229 0.3349677 -0.12280442 -0.21628244 0.0025751444 -0.755188 0.5856788 0.06663752 0.20095457 0.7761975 -0.19716586 0.11793604 -0.025841199 0.008937625 -0.63970137 -0.054795958 -0.31194362 -0.65955347 -0.6328573 0.55318034 -0.5383703 -0.14055862 -0.2307635 -0.5373087 0.4692718 -0.86220276 -0.2745483 -0.4279312 0.75154704 0.29896012 0.060089458 0.5115799 -0.027492281 0.85842836 0.08914655 0.009800668 -0.54362625 0.5408249 0.11527926 0.96902615 0.54954845 -0.3677727 -0.4537681 0.03256365 0.3976213 -0.49874747 -0.5103952 -0.0008103804 0.47662315 -0.023526704 0.47737184 0.13717528 0.55486065 0.23915926 -0.056029305 -0.014340174 -0.11405388 0.60444826 -0.01693747 0.055845972 0.48868382 0.14735143 0.14461681 0.67509514 0.16219807 -0.00047625593 -0.28107592 -0.5290604 0.41643852 -0.4639808 -0.57438636 -0.036545806 0.0696507
147 0.2992428 0.019998744 0.35707697 0.29142478 -0.101708815 0.18016164 0.14315625 0.20912835 0.07566105 0.26911396 0.08446836 -0.2614251 -0.05936494 -0.38242102 0.27075857 -0.061726782 0.03289401 0.32053903 -0.1999689 0.15489355 0.05490121 0.19664675 0.5677408 0.13442232 -0.64058864 -0.2721127 -0.4916978 -0.21389477 -0.09401027 0.018830132 0.011796598 0.13662246 -0.06241582 -0.14447844 -0.2701278 -0.14255619 0.50095963 -0.20724191 0.29036576 0.074999414 -0.038353384 0.33597603 -0.11365594 -0.044804 -0.012084818 0.20879127 -0.21056467 0.48358482 0.32041827 0.44723582 0.1739584 -0.19520621 0.07142461 -0.002101051 -0.118309766 0.19284439 0.08580388 0.4219581 -0.10808017 0.27418596 -0.078501105 0.016282132 -0.39163363 0.19904444 0.4665327 0.11022461 0.031532563 -0.15050806 0.2030502 -0.08651127 0.08041224 0.05872139 -0.066892475 -0.2019249 0.19758148 0.10761688 -0.015250148 -0.27849498 -0.060114082 0.19166066 0.34628218 -0.20156597 -0.09277151 0.2883701 -0.1613314 0.21181852 0.2282751 0.20994139 0.11571903 0.3878118 -0.122866556 -0.15454559 0.10483954 -0.30088666 0.03105875 0.011216931 -0.060075246 0.008377108 -0.088069126 0.1996224 0.08069859 0.09943536 0.14133511 0.24620867 0.050975576 -0.3071385 0.11579914 0.27362177 -0.16252826 -0.23887381 -0.15256867 -0.53708434 0.033709794 0.04152459 0.0058376696 -0.00956084 0.11155179 0.22412689 0.5172977 -0.13146707 -0.2357456 -0.2823158 0.08358196 -0.08915777 -0.23646839 0.22562107 -0.16519818 -0.19268322
119 0.18773435 0.08078813 -0.1705184 0.42962134 0.24729732 0.2144076 -0.21966289 0.12961581 -0.1467775 0.100600846 0.30366218 0.727808 -0.20142835 -0.27786535 0.47067517 0.3119513 -0.82263416 0.43170017 0.28015852 0.41451046 0.017143643 0.11737701 -0.19613259 -0.34674868 -0.44427866 0.19813637 -0.43407902 0.33733547 0.2933471 0.15057757 -0.2570914 0.11551359 0.35974258 -0.11869176 0.036590908 0.29294813 -0.16393767 -0.20060623 -0.13958241 0.14138591 -0.22689475 0.0051396163 -0.441967 -0.41748336 0.65408653 -0.29186016 0.09091322 -0.26353505 -0.55380386 0.34224477 0.00921849 -0.26889154 -0.2303687 0.1796576 0.3891042 -0.13443887 0.074572176 0.33950013 -0.19539864 0.13934775 -0.5338949 0.11022431 0.28890672 0.4381105 0.57559156 -0.14228156 0.21236081 0.5962022 -0.3459714 -0.17615487 -0.07748297 -0.09008338 0.19047323 0.06794518 0.22978657 -0.23059309 -0.23982327 0.36478677 -0.669407 0.06376388 -0.4267003 -0.22752626 -0.2938966 0.5992554 0.65035427 0.4592028 0.309483 -0.42852193 0.7759958 0.042724334 -0.46081617 -0.14332329 0.4971463 -0.36562273 0.22941706 0.06677136 0.22159837 0.06894317 0.41466463 -0.24318942 -0.17170921 -0.1789838 -0.39886728 -0.08058518 -0.53881603 -0.027456474 0.1376846 0.3102659 -0.07568019 -0.656901 0.45255628 -0.07839134 -0.33199102 0.43990892 -0.2867065 0.37948865 -0.18697079 -0.19347446 0.45505428 0.07437812 -0.557922 -0.07177332 -0.13828519 0.16260692 -0.36447558 -0.6637556 -0.2903333 -0.14165208
129 0.41916797 0.37167665 -0.2454102 0.021167507 -0.3789809 -0.15845354 -0.3185008 0.10807676 -0.21488452 0.1405004 0.29055262 -0.24609156 0.15962917 -0.45383745 -0.24969107 0.24804774 -0.40226787 0.26137742 -0.3539536 0.3643081 0.041547485 0.21917492 0.23784062 0.15263537 -0.21614234 0.10440825 -0.3487319 -0.2763464 0.06169304 -0.06399749 -0.6177592 0.14641495 0.083956584 0.015674131 -0.066480726 0.22754626 0.3970792 0.3697278 0.28354722 0.061203785 0.24167898 -0.085624166 0.2359463 -0.13846292 -0.0077923764 0.30130765 0.30064714 -0.3619495 -0.11228072 0.06154242 0.38969225 -0.07337432 -0.19736533 -0.05057606 0.2377521 0.10921322 0.21948269 0.16924968 -0.27062312 -0.17230631 -0.14494962 0.22077903 0.1571486 -0.004848716 -0.010656344 -0.24261071 0.3126963 0.04371826 -0.2117003 -0.25685617 0.06323989 0.06391611 -0.21799353 -0.07113548 0.30293074 0.06579521 -0.11516979 0.11532286 -0.25789544 0.047156706 0.087841995 0.16911946 0.24313648 -0.11013047 -0.05644649 0.3352691 -0.19413058 -0.20715478 0.124818824 0.4166185 -0.1636832 -0.22978605 -0.07727382 -0.12365368 0.30439866 0.16130568 -0.09288425 -0.19007048 0.20203309 -0.44601732 -0.21456613 0.0018163348 0.1847492 -0.17206362 -0.09839307 -0.08468182 -0.04682909 0.3705575 -0.4073886 -0.30948633 0.019651525 0.009147667 0.20778646 0.07358232 0.17933917 -0.5888697 -0.22141716 -0.122695185 0.17410216 0.040612586 -0.05441183 -0.17533666 -0.36692598 -0.074525304 0.18872605 0.267511 -0.25801626 -0.11179643
149 0.0054989825 0.17659296 -0.14334019 -0.040786784 0.12881176 0.25246873 0.12610352 0.15500627 0.06606215 0.13506171 0.058351405 0.1674674 0.06283101 -0.1249104 0.26469058 -0.2932241 -0.015574112 0.2948005 0.108011246 0.16284434 0.082955286 0.03151087 0.19282655 0.058989525 -0.37319204 -0.045194168 -0.14293203 -0.039858572 0.08711001 0.08989339 0.13161014 0.072469525 -0.19290297 -0.1925043 -0.1811285 -0.112790726 0.17440875 0.050633065 -0.05596901 -0.15089427 -0.05020611 0.06347652 -0.11133494 -0.009432509 0.16003156 0.18329903 -0.013319199 0.22730145 0.05001463 0.05140033 0.14000572 0.023951123 -0.16300596 0.12080263 0.12395053 -0.07602393 0.038448673 0.011281042 -0.06289311 -0.10706444 -0.22951123 -0.13192205 -0.048542336 -0.020473441 0.29306492 -0.2793844 0.06024606 0.14069736 -0.20235476 -0.19832008 -0.0868033 0.082184516 -0.10689406 -0.05809702 -0.028881691 0.06418075 0.17460275 0.12756902 -0.14977689 0.21625699 0.19861387 0.1754831 -0.19766271 0.041879203 -0.044492837 0.055651426 0.3172421 0.113987766 0.23595321 0.3497613 0.0101468535 -0.119370446 0.28595102 -0.17029643 0.25054443 0.1656236 -0.2537601 -0.26592195 0.12416557 0.035182927 -0.027969774 0.11089573 0.03217505 -0.22794734 -0.028413607 -0.124885894 -0.11453847 0.16342591 -0.12255589 -0.32313618 0.26338533 -0.5102424 -0.026211932 0.20004271 -0.16093199 0.11455798 -0.093049854 0.1690658 0.06082798 -0.19633897 -0.22263695 -0.1673431 -0.1008862 0.18475899 -0.06237453 -0.0148616815 -0.31790698 0.21901691
226 0.14847687 -0.16728775 0.060811352 0.09843091 0.29279044 0.39604726 -0.009146711 0.059852723 0.06930923 0.1492386 -0.0161141 -0.0023005698 0.29098126 0.18954049 0.05578813 -0.02040725 0.035474505 0.45633706 -0.17612638 0.24277863 -0.011793017 0.15615667 0.55832225 0.042247582 -0.18946609 -0.22642952 -0.019786045 -0.28510022 0.0035516755 0.13257673 -0.27127296 0.13199696 0.24416257 -0.036157507 -0.16022488 -0.057615288 0.5577285 -0.5225089 -0.1582785 0.20125388 -0.06561433 0.07277277 0.0904192 -0.412248 0.011143519 0.1564763 -0.2058598 0.19579901 0.29791287 -0.048707005 -0.14841314 0.19046418 0.08982052 0.14097826 -0.09228343 -0.02338187 -0.012761755 0.31530908 -0.09373721 -0.05775754 -0.21731411 -0.07483034 -0.14746793 0.12897003 0.2817784 0.055009462 -0.040261026 -0.14240521 -0.1949796 -0.22355922 0.2546631 -0.19437061 -0.3495472 -0.18158105 0.19114481 -0.40038413 0.23464735 0.15577686 0.09503203 0.13832928 0.18265192 -0.2582829 0.124662764 0.4765074 0.03564831 -0.020086668 0.24182111 0.23106153 0.02945667 0.4666243 0.063406534 -0.0002458443 -0.03552192 0.041657615 0.570132 0.05926551 -0.21373479 -0.08234033 -0.023043342 0.050623965 0.23107046 -0.05183732 -0.1520777 -0.1664662 -0.048736613 -0.10740283 -0.43935242 0.38310045 -0.066266894 -0.24291727 0.17357738 -0.25465575 0.11212496 0.41030303 0.034416325 0.20739923 -0.032458276 0.07125393 0.15578496 -0.21866928 -0.09287825 -0.51924247 0.24314216 0.11091271 0.045778934 0.19301136 -0.18187173 0.23095958
105 0.2661928 0.13064991 0.03373108 0.27718484 -0.19678685 -0.018025639 -0.174647 -0.12212348 -0.32761785 0.031613123 0.13618082 -0.17939477 0.28086478 -0.08809103 0.04000126 0.10895036 -0.1881355 0.123210326 -0.26433125 0.300735 0.16837288 0.032760974 0.19792749 0.1599597 -0.28912547 -0.21753123 -0.27798373 -0.37265876 0.14505348 -0.04794611 -0.5245947 0.28497922 0.20579384 -0.14873762 -0.1696593 0.066593684 0.60955316 0.2513784 0.31935337 0.2572878 0.12549384 0.041306682 0.16101451 -0.20164171 -0.24922901 0.3093609 -0.08000316 -0.3277509 0.0714816 0.12795249 0.5249123 -0.12830515 -0.1386004 0.29242745 -0.02271329 0.22344938 0.15718018 0.0044067455 -0.55415034 0.027597593 -0.04220124 0.052710444 0.17788723 0.08267695 0.2245958 -0.2994689 0.07465954 0.1605941 -0.098348975 -0.08943703 -0.057876833 0.014721315 -0.2962397 0.10717692 0.18628295 -0.022731721 -0.3208634 0.06671701 -0.35642412 0.0069247894 -0.033053994 0.1505874 0.31783628 0.055732056 0.042336255 0.4605941 -0.07039296 0.25470248 0.26744124 0.14041074 -0.14341262 -0.13919938 -0.24309261 -0.22238839 0.6288528 -0.19052981 0.20291455 -0.28685558 0.23482133 -0.33795613 0.08384716 0.043028306 0.0502806 -0.121514216 -0.11295661 -0.16688342 0.31971774 0.39749363 -0.18837164 -0.44461098 0.14677997 0.009351498 0.08323051 -0.057094764 0.41651607 -0.055064194 -0.14162792 -0.11159767 0.12657258 0.3041983 -0.022462811 -0.09716401 -0.18356197 0.014589202 0.2611159 0.34009823 -0.25952473 -0.005873622
157 -0.03794604 -0.09482111 -0.041172467 -0.14674665 0.10960958 0.2969373 0.3106502 -0.24520652 0.27949974 0.1267409 0.36087495 0.18703295 0.26112694 -0.17846312 0.2966969 0.13037798 0.08644039 0.11871096 -0.4276312 0.03698381 -0.106297545 0.12198253 0.5598054 0.070947036 -0.2774375 -0.24816585 -0.012417322 -0.190194 0.024449527 0.24799702 0.072660096 0.12480746 -0.07240636 -0.21371399 -0.44807565 0.27566093 0.22759031 0.18351674 0.0003522651 0.06767583 0.028404132 0.055926073 -0.08156074 -0.44692352 0.08501906 0.0032078624 -0.111760356 0.09921718 0.14759769 0.04413072 0.016497131 -0.13490824 0.026539827 0.1700739 -0.1481183 0.39670834 -0.11662865 -0.11915342 -0.0048930226 0.32907695 -0.3760119 0.4013896 -0.037459504 -0.18490835 -0.21831328 -0.08258338 -0.33282262 -0.021985142 -0.18447155 -0.016220098 0.3346628 -0.21041316 -0.14222324 -0.055333957 -0.09027323 -0.07527764 0.052484497 0.075131685 0.22042237 0.63714147 0.29219943 0.3282436 0.24707156 0.4489077 -0.13810572 0.04300565 -0.045508724 -0.13160822 0.21016805 0.14016843 -0.21862735 -0.049139373 0.19972357 -0.07026883 0.3683666 0.22508995 -0.047168355 0.028111301 -0.22728434 0.14582972 -0.2775038 0.17615254 0.10849143 -0.048902 -0.027393853 0.048779774 0.059972122 0.33483955 -0.5015505 -0.26280233 0.010931742 -0.334885 -0.080064125 0.4154596 0.0011045019 -0.37294942 0.14741011 -0.31908914 0.19169529 -0.15207328 -0.28469566 -0.44861355 -0.1734502 0.22657162 -0.009456206 -0.034805045 -0.43744013 0.052684166
109 -0.06896192 0.14094415 0.054200836 0.031352468 0.1307629 0.09170007 0.17240001 0.20977864 0.016459115 0.25585216 0.0065189586 -0.0041314336 0.0787905 -0.1295391 0.19078065 -0.011511465 0.05528009 0.42115712 0.026219066 0.19886638 0.15933086 0.030156177 0.41000056 -0.1774788 -0.3064179 -0.16325442 -0.23556818 -0.29107955 0.014376542 0.19998541 -0.028048525 0.17126462 -0.07985827 -0.008210174 0.2053053 0.11377016 0.14962633 0.054523926 0.07666347 0.18074404 0.073585264 0.16509919 -0.09113064 -0.030959256 0.38987535 0.123753406 0.051657222 0.18777494 -0.060459327 0.13560359 -0.05871243 0.13783513 -0.0005530297 0.12932369 -0.10341833 -0.08721533 0.3226372 0.4649127 -0.08213168 0.13855474 -0.2559459 0.13130563 0.09070797 -0.23353888 0.30982333 0.11077751 0.06956308 -0.17292212 -0.033481218 -0.16491935 0.24247111 -0.15494977 -0.15281145 0.04138622 -0.17609783 -0.30139092 -0.24086665 0.056550108 -0.3851521 0.25341126 -0.0025805563 0.084834374 0.3681813 0.1259566 0.05993384 0.10943398 0.37620348 0.08836438 0.07972495 0.42306414 -0.05728673 -0.2648529 -0.21390156 -0.49967837 0.28269854 0.016009716 -0.04667906 0.0070907054 -0.12396606 0.31039014 -0.07341327 0.5924409 -0.3038906 -0.17609611 0.45477176 -0.15004179 -0.33620742 -0.044076156 -0.13024253 -0.39314216 0.037639067 -0.09795859 -0.34128073 -0.055092823 -0.037508573 -0.0007392742 0.1497003 -0.03668159 0.21775539 0.20542979 -0.3034696 -0.23702654 0.047093447 -0.045386825 0.31125152 -0.07257551 -0.080994226 0.3973927
218 -0.26455742 0.19064747 -0.38683012 0.064840145 0.0661339 0.37672395 0.16258085 -0.04310653 0.057874665 0.060670428 0.36239946 0.45543155 0.33145112 -0.10528808 0.24299744 -0.16444983 -0.08992648 0.50178254 0.1543295 -0.033642355 -0.21214634 0.01878205 0.2298531 -0.047713228 -0.70560396 -0.07374599 -0.21784003 -0.23464794 0.4094411 -0.029828971 0.07022855 0.0013401323 -0.2790831 -0.34759653 -0.08822798 0.45182532 0.115736604 0.071085915 -0.4609035 0.3180561 -0.04466941 0.25179547 -0.050023098 0.023911126 0.25905195 0.42525825 0.15094247 -0.09174713 -0.37246385 -0.02526258 0.29608566 0.018990954 0.003423026 -0.21849295 0.44088838 0.19765714 0.08251614 0.28866693 -0.109800674 -0.56148416 -0.038033836 0.14001994 -0.17443344 0.16785583 0.6734214 -0.22755706 0.014654053 -0.05267499 -0.08180149 -0.05359776 0.33029187 -0.37730113 -0.47991008 0.101941094 0.21705225 0.022239352 -0.11276937 0.24184941 -0.23173773 -0.00010700508 0.320634 0.1820038 -0.2518474 0.13171835 0.44728845 0.3029449 -0.15898727 -0.459035 0.40601337 0.07417026 -0.042721298 0.26318204 0.044744723 -0.08897893 0.113356926 0.098673545 -0.2855009 -0.0841176 -0.06622515 0.24539952 -0.3099398 -0.12567617 -0.19213082 -0.30722907 -0.42476618 -0.29358602 -0.22245231 -0.07676658 -0.11151617 -0.27732685 0.4192481 -0.22620466 0.012614012 0.34650448 0.12853776 0.11782329 -0.044253234 0.001990016 -0.019769957 -0.1170957 0.0040863245 0.030526988 -0.28304204 0.24484865 -0.27290502 -0.44299075 -0.05716444 -0.08553385
31 0.5297241 -0.4411344 0.2598596 0.9197317 0.3797849 0.54531133 0.49312997 -0.19515648 -0.791086 0.9207783 0.22077231 0.81398886 0.11657307 0.19010684 0.86144 0.52028066 -0.649875 -0.22918354 0.0059981123 0.5196155 0.116625376 0.8136263 -0.074773856 -1.0845442 -1.0288391 -0.040324766 0.05020405 0.4475056 0.12216104 -0.5452284 0.025445286 0.20666058 -0.26075575 -0.15870053 -0.7523668 0.7483828 0.19007416 -0.35630566 -0.12265174 0.8204512 -0.3101339 0.78601617 -0.66794515 -0.06980535 -0.033309296 -0.2473622 -0.6766268 0.53663135 -0.27294528 0.09512714 0.3501791 -0.18583477 0.5120024 -0.13629566 0.5971674 0.06702619 0.6229052 -0.15018767 -0.559113 0.28980425 -0.43408614 0.42595905 -0.2515365 0.64712316 -0.0142150875 -0.87431824 0.36964998 0.12346431 0.06637396 -0.011729898 0.721633 -0.18835455 -0.14572626 -0.45031324 -0.14368026 -0.41322505 -0.7190613 0.17148492 -0.16362238 0.7818704 -0.15305948 -0.10844384 -0.40930483 1.1369809 0.7774425 1.398835 0.26630503 -0.62690836 0.81994236 -0.11381209 -0.41616815 0.10635749 0.5918953 -0.12108382 0.72624356 0.20005202 -0.58416826 -0.072971545 -0.23702836 0.19960973 -0.07495933 -0.49825558 -0.47195044 0.48273745 -0.035512414 -0.23699088 0.42225528 1.0157502 0.5326717 -0.15992625 0.032665726 -0.09625233 -0.038385123 0.24123484 -0.2388763 0.32186458 0.23816451 0.21162699 0.17540725 0.4497978 0.036958467 -0.1820163 -0.22051166 -0.20992364 -0.41783485 -0.59907913 -0.1606773 -0.3259214
97 0.24583882 0.04473427 -0.010760665 0.74790525 0.2348133 0.36453125 0.31409588 -0.02393992 -0.4828613 0.5973674 0.48608273 0.3205508 0.13629608 -0.35659337 0.53566104 0.33099425 -0.42747673 0.409328 -0.2893679 0.49123272 0.19291861 0.51798606 0.34569657 -0.41305313 -1.0063287 -0.3000133 -0.5851651 0.01219269 0.14063492 -0.09101037 -0.4342582 0.38818014 0.23495333 0.14952743 -0.42598847 0.7160459 0.8339677 -0.087511 -0.20995581 0.45887184 -0.2915823 0.5002429 -0.1246781 -0.3223572 0.31673965 0.17930977 -0.52190506 0.15338537 -0.24247141 0.37236217 0.5751724 0.1990211 0.0781893 0.01953126 0.3386241 0.17935997 0.580036 0.2681318 -0.49382886 0.13230969 -0.6075998 0.37835744 0.1530178 0.35680434 0.5365134 -0.29604214 0.2366732 0.28880832 -0.074196875 -0.20659088 0.12375259 -0.15278971 -0.50427353 -0.16998042 0.16037959 -0.41760024 -0.28085187 0.4439776 -0.39975753 0.6924064 -0.22428517 -0.040995087 0.0069573177 0.7342524 0.5644993 0.69497687 0.48629984 -0.27602383 0.6301916 0.40680474 -0.23436356 -0.3251883 0.27238846 -0.41334647 0.78158236 0.083091766 -0.49529034 -0.23477644 0.034039408 0.02629931 -0.04537082 0.07513006 -0.23304443 0.12871546 -0.15412505 -0.12298261 0.09468209 0.63958186 -0.12715465 -0.5638061 0.31569433 -0.43025124 -0.033567656 0.3181797 -0.12153986 -0.07473416 0.016184129 0.08114367 0.5956716 -0.10361769 -0.09824907 -0.4747677 -0.39663744 0.10747086 -0.27267516 -0.26312667 -0.41440675 0.101313755
5 0.07446211 -0.18061288 -0.38066712 0.17964494 0.15096015 -0.15107208 0.24287975 -0.105126135 -0.340316 0.14547397 0.28902853 0.23042314 -0.044368755 -0.12895112 0.3321582 0.25047374 -0.26864097 0.5560376 0.014050901 0.15359087 0.4467274 0.16785826 -0.011254486 -0.22109854 -0.339508 -0.042547297 0.05492522 0.17743964 0.27219248 0.07270658 -0.11274546 0.28407037 0.21810827 0.1167068 -0.0038587437 0.06344847 0.29222283 -0.051295307 0.040831104 0.50623834 0.051236 -0.02976242 0.348009 0.07448842 0.3652904 0.052623745 0.070691735 -0.08279506 -0.30585533 0.04417378 0.3261851 -0.25487614 -0.13201088 0.012935561 0.27118218 -0.115634255 0.43464735 0.09216732 -0.31528345 -0.27606076 -0.1597569 0.10222949 0.18894744 -0.060945123 0.19421081 0.26681516 -0.15204597 -0.06404748 -0.25995257 0.028707158 0.13766101 -0.13238803 -0.1914319 -0.008290858 0.17100814 -0.0023194267 0.08343924 0.3999693 -0.11048819 -0.19624664 0.22120786 -0.29287162 -0.24958438 0.04451158 0.34341592 -0.03513028 0.31591737 -0.1554544 -0.029839681 0.23517098 0.21558109 -0.33591115 0.051877197 -0.49721384 0.27081972 0.067228176 -0.0035344167 0.047035567 0.103511594 0.024257774 0.17045084 0.07779401 -0.2766119 -0.0006716677 0.15206914 -0.43170944 -0.42435336 -0.27405775 -0.23979357 -0.26949486 0.40468514 -0.17126974 -0.18818456 0.0052428814 0.10757564 -0.10428495 0.1430773 0.12925985 -0.020578807 -0.27949747 -0.064913206 0.1416865 -0.4386047 0.07196933 0.18760213 -0.009496538 -0.18513133 0.22037672
47 -0.026183534 0.029952629 -0.25696272 0.1975272 -0.13508569 0.0022357437 0.25310367 0.07057478 0.15618761 -0.039634764 0.2019391 -0.09299151 -0.09269247 -0.13220905 0.046413496 0.3567622 -0.33433285 0.31941172 -0.19101319 -0.13977462 -0.28498977 0.09873183 0.30771938 -0.1042446 -0.34986606 -0.053123865 -0.083947904 -0.020385223 0.29728588 -0.18407695 -0.16776715 0.08396517 0.10184284 0.06747264 0.2410943 0.70157427 0.22167046 0.35740605 -0.09630318 -0.0054456806 0.11135299 0.294038 -0.023866672 -0.123723775 0.39463836 0.030374888 -0.094211064 0.07061691 0.02191641 0.21070993 -0.030847535 0.1532128 0.16811807 0.0689879 0.19198447 -0.01992758 0.14921851 0.06535135 -0.101924665 -0.1506932 -0.09903638 0.010639759 0.29908958 -0.189678 -0.047428 0.023468258 -0.09095384 0.014645884 -0.02274846 -0.10634502 0.3834089 -0.20085227 -0.29960144 -0.15372838 -0.25799805 -0.14652774 -0.3872892 0.21793501 0.011313699 0.33927628 0.0172527 -0.048763976 0.606265 0.2678838 0.43978524 -0.078900345 0.2991314 0.019158306 0.4681257 0.28110442 -0.11370828 -0.49008352 -0.16775732 0.08388001 0.5783415 -0.21175326 -0.06134834 0.12435859 -0.05718079 0.23006554 -0.36112228 0.559921 -0.36049026 -0.16716678 0.18029073 0.1589642 0.014894044 0.15969914 -0.6201383 -0.32354516 0.07045864 -0.042989917 -0.18861575 -0.155715 0.08405895 -0.42979133 0.17129573 -0.14012425 0.051095944 -0.19132985 -0.25410244 -0.17034976 -0.4554376 0.014195395 0.245353 -0.05328943 -0.4564619 0.036246456
216 -0.23865245 0.058367256 -0.07072218 0.1074838 0.21341486 0.05133268 0.21103719 0.084021114 -0.34725085 0.2369675 -0.04446156 -0.3111908 -0.18905813 0.13238579 0.33948064 0.057597235 -0.15327458 0.08019697 -0.06996689 -0.04029691 0.34750444 0.38322172 0.30697152 -0.053108446 -0.43437082 -0.15603448 -0.2572705 -0.24194108 0.060146533 0.24314527 -0.16874616 -0.18601273 0.0061815935 -0.28778756 -0.60186124 0.24425794 0.49109256 -0.40371448 0.5569733 -0.02244201 0.13060303 0.014126773 -0.24396318 -0.22480649 -0.083666496 -0.06957752 -0.08289456 0.07243712 -0.07618195 -0.1381356 0.34248146 -0.089168005 -0.025364649 -0.006181619 -0.17632651 0.18461025 0.13679321 0.18264781 0.15374552 0.38183057 -0.30549777 0.08679232 -0.14801422 -0.012867273 0.30236977 -0.28113416 0.15516546 -0.283541 -0.07532757 -0.27102065 -0.2508595 -0.07525597 -0.2706918 -0.022454362 0.21608841 -0.25831017 0.059604876 0.45680407 0.011096892 0.32350397 -0.06760442 -0.05888972 -0.07654863 -0.114259794 0.03338268 0.20197159 0.29829952 0.16946554 -0.020548362 0.11765061 -0.32471645 0.060789995 -0.09692204 -0.52063704 0.32962883 -0.008849665 -0.009354084 0.13046865 -0.2263794 -0.24207741 0.16803934 0.23848973 -0.25749505 0.07235547 -0.12590581 0.030987093 -0.1547893 0.15909304 0.024372214 -0.31735575 0.03186405 0.08391999 -0.05559511 0.44462574 -0.08515966 -0.06857347 -0.50474554 0.18372871 0.4560415 0.14823873 -0.5393096 -0.14886497 -0.058617283 0.013124315 0.18808813 0.302913 -0.14989845 0.33310455
42 -0.08820951 0.21571301 -0.07259963 0.11029667 0.2747776 0.10925068 -0.3707256 0.22174633 0.13131097 0.37609223 0.36805204 0.29498848 0.34666178 -0.3064404 -0.13897192 -0.0294906 -0.20397852 0.097903386 -0.07502456 0.3953773 -0.3847958 0.1783553 0.27196908 -0.1615608 -0.50384736 0.0399553 -0.2408728 -0.04250756 0.050575074 0.23244344 -0.38482174 -0.1006166 0.017924154 -0.08779807 -0.040267214 0.07737151 0.3295509 -0.19733599 -0.029685384 0.31833133 -0.27436718 0.0038466922 -0.15529653 -0.22229414 0.35954317 0.10932205 -0.1435584 0.2403384 -0.09144137 0.11137557 0.43119758 0.07907615 -0.33870918 -0.14701572 -0.22646524 0.29405725 0.21766491 0.33201137 -0.06498269 0.05251847 -0.35931772 0.18818079 0.07427134 -0.13031143 0.32970884 -0.16945672 0.19761449 0.19425441 0.018782595 0.051867258 -0.092649184 -0.2570244 -0.29946026 -0.27800095 -0.038141683 -0.3738174 0.22359149 -0.003601307 0.16539042 0.12563145 -0.01883693 0.04726846 0.12911789 0.20310892 0.0064578797 0.04038639 0.37555027 0.11133506 0.030904101 0.13929592 0.01923439 -0.10175837 0.021158222 -0.16940278 0.32696715 -0.26240566 -0.03059074 -0.38956618 0.345169 -0.1643756 -0.05336196 0.06722143 0.1317443 0.24782284 -0.11051926 -0.021623578 -0.22083412 -0.32879516 -0.33244923 -0.3703291 -0.05523411 -0.13893472 0.031015495 0.14154015 0.002985074 -0.31085435 -0.40811622 0.17848976 0.24038379 -0.15580535 -0.2723904 -0.30230358 0.16603233 0.008326006 -0.09156755 0.09345868 0.09219054 -0.054266393
82 -0.44197214 0.120439835 -0.35386702 0.1742121 -0.13880444 0.19601409 -0.08355997 0.1734157 0.20812647 -0.059895746 0.00194388 -0.030690532 -0.19786447 -0.44678143 0.13061433 0.053321555 -0.23760301 0.32376462 0.31193042 -0.07033368 -0.122050315 0.29771674 0.062013987 -0.2234042 -0.19030736 -0.2046368 -0.49957874 -0.09051968 0.1331132 -0.06630851 -0.2730302 0.21490954 -0.038705118 -0.15605165 0.13880004 0.31773028 0.09135134 0.24688569 0.037920218 0.58752 0.06084067 0.062987745 0.12923783 -0.11389419 0.2741175 0.29479966 0.02377661 -0.0710258 0.073158 0.1193432 -0.10309258 0.20961791 -0.13917229 0.016122928 0.35156092 -0.054444857 0.24772738 0.29599988 -0.25091508 -0.13241628 -0.1621923 -0.1385471 0.07088578 0.010269662 0.36284325 0.17163311 -0.06723118 0.24715127 0.16108628 0.004345955 0.21475038 -0.34048912 -0.24100499 -0.37851188 -0.11939803 -0.031151405 -0.2691823 0.11523092 -0.39769408 0.1480673 -0.030533584 0.24663618 0.24626872 0.14108698 0.2783473 -0.03794628 0.29531038 -0.16378383 0.47855085 0.55180144 -0.1950845 -0.40298837 -0.23424605 -0.31989816 0.32861874 0.0011733843 -0.24950276 0.2651524 0.24566887 0.082966514 -0.0051039434 0.30644864 -0.041206207 -0.28801522 -0.05613604 -0.1400085 -0.21642083 -0.20605974 -0.3686441 -0.37122536 0.19221617 -0.5819267 0.0040745786 0.14672965 -0.24895418 -0.21208872 -0.048177004 -0.18051724 0.24828133 -0.18523912 -0.13512075 0.11331295 0.06714678 0.2693233 -0.12473457 0.0034802768 -0.23405276 0.028486878
201 0.094347805 0.023555748 0.11159872 0.27853522 -0.10000101 0.068577215 0.098855235 0.22830921 0.1967174 0.3652015 0.033043724 -0.010432154 0.06902249 -0.086774565 0.16955908 -0.039022066 0.04138371 0.11729497 -0.012895173 0.18300512 0.028061109 0.115804546 0.58440566 0.023883015 -0.44213787 -0.26633987 -0.24799065 -0.15217938 -0.14258352 -0.005236124 -0.05319542 0.14907251 -0.09526728 -0.19134244 -0.30358744 -0.0014365397 0.60974944 -0.21414337 0.09838418 0.124919794 -0.07513732 0.3677187 -0.09526707 -0.2619371 -0.07813147 0.15390521 -0.17222188 0.52648497 0.16310996 0.1764019 0.14614978 -0.15721929 0.05876656 -0.033979513 0.051002525 0.03591072 0.15785235 0.35155112 0.017980412 0.19938007 -0.25872228 0.028341308 -0.25707096 0.0051700105 0.18591566 0.08550983 -0.03392995 -0.1066368 0.0933651 0.13756989 -0.0067802784 -0.17058428 -0.04422859 -0.18835495 0.22117628 -0.09734775 -0.036012672 -0.24277392 -0.08757344 0.26615283 0.23824741 0.03062593 -0.21002722 0.31982216 -0.158103 0.09985469 0.3054995 0.45733532 0.0815184 0.36523387 -0.22490156 -0.066871576 0.22488047 -0.19914834 0.062863156 -0.105941676 -0.2341104 -0.06255792 -0.1149003 0.10428479 0.20040202 0.018176574 -0.0008037887 0.047428768 0.06639567 -0.17100403 0.015973939 0.3198028 -0.2077427 -0.20037487 0.044588596 -0.4438398 0.030541379 -0.10705872 -0.027844274 0.1626766 0.07529718 0.10719588 0.31899357 -0.04668001 -0.17770138 -0.39384446 0.07435217 0.15549162 -0.010308132 0.08019468 -0.013054918 -0.0023150083
50 0.020525202 -0.43001875 0.9316571 0.14823805 0.15306298 0.6015072 0.5004308 0.32082754 -0.46668476 0.3984204 0.07645714 -0.04568747 -0.49518287 -0.34834263 0.4344116 0.172268 -0.34942597 0.072113894 -0.5899138 0.7501632 0.22008476 0.17697386 0.07590998 -0.78259766 -1.1059874 -0.10102435 -0.42247373 0.28179362 0.47029588 -0.34789696 -0.64639866 0.86758775 -0.24891713 0.3393337 -0.7280562 0.48914212 -0.28992173 -0.77065307 0.19677195 0.26076758 -0.490969 0.2033596 -0.55959237 -0.4255232 0.26054117 0.03429862 -0.33972597 0.24112058 -0.31680176 0.46528718 0.37324694 -0.2747284 0.3444458 0.32601532 0.19431978 -0.002240105 0.9619616 -0.016805315 -0.29851022 0.10888418 -0.35842732 -0.0671131 0.14941242 0.12614256 0.4904985 -0.21393594 -0.06599516 0.64149797 -0.09446829 -0.051026348 -0.075234085 0.5213211 -0.5254187 0.07294704 -0.040678617 -0.13346645 -0.8652772 0.7331148 -0.23419864 0.36449444 -0.5462329 -0.32368577 0.5907099 0.6472173 1.0892053 0.9648389 -0.31765664 -0.64050716 0.2547779 0.4427078 -0.10805097 -0.3023843 -0.33204162 -0.18551004 -0.24475431 0.037636396 -0.72309923 0.2195866 -0.17864834 -0.2996097 0.44639483 -0.27333927 -0.70136094 -0.041471317 -0.053056825 0.43897492 0.12304054 0.8235348 0.40151152 -0.5228277 -0.27643576 -0.10298421 0.05321077 0.056619745 -0.21999717 0.095720224 -0.1239119 -0.17306145 0.75239426 -0.2048641 0.09370935 -0.6386091 -0.39289898 0.77714133 -0.6492149 -0.13553663 -0.5585232 0.19606067
167 0.10091203 0.1476566 0.24999787 0.12625395 0.24740222 0.12780231 0.10970455 0.2074033 -0.097274534 0.28568667 0.17495006 -0.0074034417 0.06546363 -0.16311063 0.014075528 -0.04355047 0.18451972 0.52823526 -0.2141275 -0.018675782 -0.17442128 0.20053005 0.34118724 0.08860342 -0.30761638 -0.4324541 -0.2500288 -0.079790145 0.020374134 0.15374646 0.21105145 0.013381285 0.14724967 -0.04190462 -0.21328591 0.20064221 0.5741546 -0.30997437 0.121913455 -0.0077532935 -0.11141719 0.19918439 -0.089379005 -0.16657282 0.42330563 0.12299701 -0.30327505 0.43969387 0.015809294 0.036674958 0.3159172 -0.2897147 -0.06852888 -0.0624303 0.0014111948 0.2923308 0.28027576 0.20787582 0.16183758 0.17775504 -0.35339978 -0.06285522 -0.37020057 0.10150809 0.23824064 -0.040903766 -0.16122219 -0.16531864 0.026421657 0.002417874 0.15706494 0.18751346 0.047772564 0.009617703 0.05520339 -0.4803355 0.17005906 0.21819265 -0.21476296 0.42167667 0.12384094 0.08867322 0.07466514 0.0033544758 0.04457437 0.4295918 0.15578796 0.2400013 0.28094062 0.22671889 -0.18553926 0.19659537 0.041601352 -0.054877434 0.27091953 0.20493752 0.00760791 -0.12570563 0.27875197 0.15345408 0.22368896 -0.21572547 -0.07627924 -0.105702035 -0.044118248 -0.15344736 -0.12826067 0.20600843 -0.2243928 -0.39835295 0.025817713 -0.2424638 -0.079560675 0.104002945 0.04397096 0.1497798 -0.07560744 0.31169686 0.05792123 0.11328145 -0.18772544 -0.12276418 0.024252268 0.13032983 -0.020432228 0.48606458 0.017776225 0.29705685
76 -0.021386744 -0.49717414 0.02204536 0.3851724 0.11116955 -0.25568897 0.067955345 -0.116437934 -0.62206227 0.40782633 0.28993258 0.025247779 0.13819303 -0.06386536 0.55195194 0.3499592 0.22732358 0.24034765 -0.09433237 0.32902336 0.40028763 0.5466992 0.198897 -0.49062726 -0.35089904 -0.0043163486 -0.40058786 0.21724524 0.47100446 -0.20268768 -0.38312206 0.013955299 0.12684178 0.4368981 0.13773732 0.095755115 0.56693023 0.0072921603 0.24754277 0.4599188 -0.1719868 -0.11844272 0.38585737 -0.45005086 -0.010508186 -0.1574898 -0.34716025 -0.013244686 -0.25488764 -0.09085742 0.49354488 -0.40133074 0.2508769 -0.025351783 0.35087502 0.3118399 0.3362333 0.0636043 -0.10352121 -0.04373568 0.031186994 0.23850729 0.17299776 -0.17385258 0.1379782 0.067687795 0.121765874 -0.05244344 0.05595538 0.12822205 0.10929108 0.13193288 -0.1722885 0.09539319 0.057212684 -0.35485354 -0.21354033 0.12907366 -0.5009795 0.12746215 -0.03936163 -0.23910624 -0.14028227 0.40920538 0.30749908 0.100009754 0.30033988 -0.004485952 -0.1147985 0.31779453 0.14277276 -0.37634328 -0.032800745 -0.39105067 0.43142855 -0.09648768 -0.022974724 -0.074402794 -0.2287312 -0.12544121 0.4723429 -0.010540958 -0.06792442 0.29650065 0.14594306 -0.2969108 -0.17525631 0.10178451 -0.015471143 -0.39710844 0.2583433 0.12877578 -0.12447919 0.10672583 0.33804402 -0.107927844 0.20889081 0.13428071 0.1357394 -0.2902027 -0.16573948 0.057671007 -0.4700698 0.20133944 0.06579328 0.48901057 -0.15443864 -0.031912126
25 -0.08019848 -0.22589089 -0.026979247 0.39479443 -0.19892992 -0.058041833 0.29695445 0.055854406 -0.37578052 0.4280254 0.1347963 -0.20457093 0.15244554 -0.13947329 0.30347177 0.043175753 0.13859239 0.23393048 -0.3258434 0.23745783 0.40131682 0.30596516 0.38937667 -0.019745324 -0.34412038 -0.19935343 -0.244246 0.19797532 0.4536741 0.12273641 -0.23652701 0.074517764 0.054470643 -0.008847521 -0.16355765 -0.058569 0.5003627 -0.028700575 0.11585949 0.20860106 -0.12170558 -0.071847476 0.42959148 -0.5258578 0.06092492 0.36830634 -0.43418595 0.14832298 -0.2672522 0.20661765 0.36404508 -0.11863615 0.057590533 -0.14807159 0.20722081 0.029899195 0.21766238 -0.0686884 -0.19953662 0.15494598 -0.16780788 0.19052753 -0.05516098 0.23425345 0.08815466 -0.41438222 0.07337158 0.1540404 -0.5179987 0.083383836 0.20901194 0.1918474 -0.06177209 0.095289215 0.27967963 -0.26238865 -0.07635069 0.23519458 -0.033365782 0.2344087 -0.16244437 -0.26524135 -0.37879068 -0.034545876 0.41930446 0.094611906 0.30165043 0.3276166 -0.0678846 0.024113106 -0.006435868 0.0057242196 0.09008715 -0.38718045 0.42872357 0.22441886 -0.16878627 -0.33959863 -0.10465013 0.1772317 0.30397737 0.2205452 -0.3654857 -0.010410437 0.3839315 -0.34154537 0.12267457 -0.09205213 -0.06908902 0.13603188 0.18243244 0.13628533 -0.034471642 0.08520895 0.053841393 0.064991236 -0.3838671 0.08352977 0.17612879 -0.5996285 -0.04018325 -0.02785791 -0.12486719 0.45664734 0.15489618 0.34052894 -0.021101303 -0.055337504
52 -0.08687219 0.07929844 0.10656824 0.19581673 0.18301521 0.4515855 -0.13134949 0.28962296 0.11466016 0.23738459 -0.008371114 0.41801763 0.106450886 0.018902577 0.3201625 0.27622148 0.2619211 0.19309792 -0.30424565 0.31890368 0.17812425 0.12326361 0.33126235 0.0038161285 -0.19005105 -0.3214325 -0.41773066 -0.1053086 -0.12997779 0.40121984 -0.15719569 -0.12382656 -0.16472293 -0.2872646 -0.18340708 0.0050882474 0.52420115 -0.26185 0.2874531 0.23645261 -0.23717451 0.4622483 -0.29891488 -0.019388542 0.14363672 0.059752222 -0.17662549 0.54921395 -0.1337206 -0.18694277 0.26850674 0.01800445 -0.02603242 0.20120977 0.29476985 -0.026864339 0.19438899 0.32508034 -0.20732716 0.21792373 -0.3262294 -0.2661863 0.08682021 -0.073154055 0.049341597 -0.5422808 0.013318487 -0.14011869 -0.09278829 -0.05528222 -0.13859932 -0.35047224 -0.15452445 -0.06032712 -0.03456702 -0.40184948 0.13164915 0.2842758 -0.1375858 0.23077567 -0.24379724 0.11626841 0.28710207 0.6153361 -0.09499976 0.42105 0.24328797 0.43037775 0.27897754 0.025918253 0.30277932 -0.33288008 0.16818157 -0.21815223 0.12611097 0.10585188 -0.009607144 -0.0012167965 -0.2808985 0.15127343 -0.049615618 0.060282245 0.15667686 0.20498782 0.15914643 -0.15884301 -0.44452244 0.73473686 0.13091008 -0.6001774 0.03442198 -0.33793455 0.1479448 0.10507865 -0.1940214 0.0133943325 -0.28904054 0.4631373 -0.017925845 -0.20659211 -0.038112458 -0.60874814 -0.10691176 0.014125432 -0.15073268 0.34428456 0.14069812 0.17692912
150 0.2933144 0.32907158 0.28323057 0.16066496 0.21901913 0.23311302 0.03507302 0.20795865 -0.15018208 0.4076602 0.21716325 -0.09889693 0.016294902 -0.17588547 0.4341599 -0.0010331959 0.076648995 0.4545492 -0.113946825 0.041798532 -0.105152756 0.20323843 0.40426993 -0.04253187 -0.42250395 -0.52136433 0.0011022061 -0.34759218 -0.04648244 0.15613188 -0.17019685 -0.11947758 0.056392923 -0.017637756 -0.3033613 0.07862044 0.40766177 -0.1900297 0.17618842 0.022596426 -0.078451805 0.007278044 -0.1778596 -0.1572424 0.38718936 0.12052858 -0.30290043 0.33347175 -0.11201933 0.046409164 0.25282034 -0.11493649 -0.06698465 -0.1250972 0.048394084 0.09359804 0.21177362 0.19681993 0.045927964 -0.14123112 -0.45690128 0.03849802 -0.27311993 0.13027884 0.15240216 -0.1137075 0.09684836 -0.19722828 -0.20384884 0.2190248 -0.083726674 0.29173836 -0.24589717 0.04758542 -0.036676764 -0.33941588 0.06461653 -0.0051129963 0.010053996 0.3679454 0.27070278 0.28232563 0.11764897 0.024562068 0.119891316 -0.07983749 0.28474483 0.24883038 0.14708503 0.20963235 0.03317219 -0.030184474 -0.038953744 0.07046984 0.10791983 0.34739715 -0.08721128 -0.1867554 0.11745555 0.308625 0.043147348 -0.083480276 -0.123945005 -0.072595894 -0.04741716 -0.07785633 -0.07462309 0.27692127 -0.11747401 -0.44663203 0.12403204 -0.51951957 -0.030792033 0.044176 0.05552787 0.196979 -0.25222397 0.26711524 0.0034586126 0.11052289 -0.22574015 -0.12781504 0.055790458 0.22876965 0.05380141 0.45119432 0.008864852 0.3019618
51 0.066657156 -0.31893533 0.8396706 0.20148663 0.16509178 0.657865 0.3068792 0.34298757 -0.519076 0.41174963 0.108167335 -0.06760458 -0.41371533 -0.28272426 0.49244148 0.14172319 -0.14215921 0.046977356 -0.49192306 0.7160985 0.16199787 0.08058019 -0.025289517 -0.68178517 -1.0034236 -0.12696268 -0.38179854 0.28384006 0.35006538 -0.22000946 -0.68605703 0.834077 -0.21523444 0.27663645 -0.59139144 0.5798297 -0.16381611 -0.62758976 0.23806797 0.3343977 -0.42997694 0.15017264 -0.45585215 -0.40908998 0.19185781 -0.0036080906 -0.44208574 0.19800076 -0.33382365 0.44026503 0.34226742 -0.18620098 0.37504604 0.33130234 0.11803435 -0.20447809 0.8718123 0.055550084 -0.31225678 0.05524768 -0.33078903 0.049098212 0.17812073 0.14626108 0.66054755 -0.26677713 -0.10604519 0.65513724 -0.023091499 -0.08104044 -0.096564524 0.43783826 -0.4544464 -0.029881494 0.16588292 -0.096136846 -0.86464703 0.8013217 -0.24168782 0.42105278 -0.63577855 -0.28353253 0.53839594 0.6671351 1.0766094 0.9543038 -0.32736495 -0.664941 0.18349849 0.37963364 -0.11123415 -0.31433994 -0.3178545 -0.1822792 -0.24650267 0.09933506 -0.69017464 0.13865493 -0.08738157 -0.4821699 0.46321976 -0.28882706 -0.69497734 -0.043063674 -0.0123022655 0.4810277 0.21073624 0.73363066 0.5286009 -0.47057942 -0.34116188 -0.08084554 0.07508508 1.890204e-05 -0.11864378 0.17043531 -0.14300583 -0.17072496 0.8139262 -0.19275983 0.12598161 -0.5847225 -0.4647469 0.76720077 -0.7577306 -0.16245434 -0.6188627 0.24422668
205 0.064134195 -0.100319624 0.2277095 0.14273973 0.2936081 0.27645317 -0.026749363 -0.13376628 0.061457142 0.15147084 0.23160529 -0.122339725 0.3823811 -0.05066113 0.044855323 -0.10926688 0.115491904 0.5300993 -0.345784 0.39707738 0.106944025 0.152561 0.4046667 0.0549147 -0.3519302 -0.14667647 -0.09121424 -0.17310801 0.008293999 0.097381905 -0.30362847 0.09482149 0.17135602 -0.1570253 -0.1052389 0.00838676 0.38244644 -0.4851428 -0.098531134 0.06923301 -0.050042044 -0.030098204 0.21307924 -0.34002563 -0.011093403 0.21007468 -0.16020975 0.36855847 0.23624733 0.07130077 -0.15319726 -0.0002712194 -0.016483609 0.050230715 -0.12310265 0.038328044 0.09531191 0.14137886 0.06090858 -0.0561658 -0.23299047 -0.0697746 -0.21136215 0.14152803 0.13455412 -0.13180129 0.11527391 -0.26180905 -0.21370605 -0.034793157 0.15019558 -0.12991378 -0.21345839 -0.08052649 0.2192733 -0.45366672 0.22721948 0.2697522 -0.20438942 0.17124291 -0.014339006 -0.12251319 0.1846788 0.17515755 0.0042960565 0.028065497 0.022924801 0.27212334 0.08122257 0.39736968 0.082086675 0.14328562 -0.06588794 0.07233454 0.48102304 0.057358705 -0.099634685 -0.041736417 -0.044043586 0.012058302 0.15819708 0.009258511 0.0074198064 -0.09733019 -0.033586238 -0.18618266 -0.25298786 0.33141914 -0.08003039 -0.27525112 0.17655012 -0.2336457 -0.105419934 0.4355403 -0.093861505 0.17547077 0.06950045 0.10103764 0.16748278 -0.1739134 -0.15968578 -0.55682474 0.1695162 0.026247086 -0.034602564 0.11614289 -0.23072584 0.17862086
3 0.20120768 0.0610495 0.147074 0.14980732 0.23024327 -0.01604841 -0.08134612 0.32458493 0.1557338 0.63362885 -0.17004526 -0.012363323 0.27749467 -0.35433382 0.29304788 -0.16183937 -0.18542254 -0.045206495 -0.42385694 0.28221443 0.05668833 0.33390078 0.44061062 0.121667296 -0.17362604 -0.2053966 -0.4853403 -0.0046136035 0.14288102 0.44899824 -0.30502385 0.07476165 -0.0115763545 -0.17213874 -0.055231366 -0.016879587 0.44809633 -0.49055162 0.087659836 -0.054004844 -0.2457037 0.21424524 -0.10701229 -0.47458085 0.26367044 -0.06458098 -0.12642343 0.14956847 -0.22620082 0.1634773 0.13510358 -0.049783897 -0.06793447 -0.23644337 0.3317405 0.014892363 -0.11566572 0.4902183 0.053625837 0.029294625 -0.14693461 -0.011910126 -0.24357656 -0.04603015 -0.0027315628 -0.014032707 0.27402 0.16115135 0.15826026 -0.12514034 0.098681845 -0.059195645 0.05260042 0.20899795 0.0526893 -0.5124351 0.16485862 0.029008932 -0.2228502 0.28577816 -0.09962488 0.3877041 0.14933476 0.25796315 -0.02568171 -0.09855238 0.3677629 0.32965586 0.26381353 0.23901935 -0.33324835 0.038983952 0.45195696 -0.20248014 0.37371063 0.24073313 -0.3589722 0.047782533 -0.14787038 0.29289883 -0.014699238 0.18932049 0.023891471 0.046664882 -0.063792795 -0.007894152 -0.19358191 0.5675246 0.065433756 -0.0020469243 0.10022218 -0.10967149 -0.17532599 0.21650496 -0.41682047 0.28817087 0.22095269 0.13840315 -0.032457903 -0.10425212 -0.43312365 -0.30086344 -0.18244912 0.1507487 -0.16526212 0.05726408 -0.2151639 0.27712888
54 -0.0104055805 -0.048909523 -0.40100998 0.19598787 0.026848989 0.14795245 0.24628958 0.052353844 -0.09574154 -0.059837025 0.2936628 0.12728295 -0.119482756 -0.2272468 0.08641403 0.049609818 -0.3170721 0.44192725 0.0573252 -0.039443273 -0.2162372 -0.14379784 0.13165553 -0.10658125 -0.29108998 0.17164823 -0.08946375 0.054719374 0.18525517 -0.17122357 0.17349859 0.25787702 -0.12675864 -0.12604508 -0.25628543 0.25458726 0.26581678 0.084326036 -0.2405055 -0.13507345 -0.18597841 0.30478394 0.09788747 -0.07923162 0.19295587 0.1840549 0.22683631 -0.07321525 -0.12547038 0.10758415 0.20364395 -0.1637185 0.030049236 -0.07304917 0.19325061 -0.06969341 0.27133438 -0.25854766 0.031530783 -0.067458816 -0.1887188 0.23664705 -0.14462386 0.052412014 -0.22092377 -0.083119035 -0.104003124 0.16648507 -0.0016289741 -0.0029999337 -0.021073706 -0.32898352 -0.24786037 -0.285508 0.25476214 0.17926712 -0.2745008 0.1446211 0.2561533 0.2845654 0.32348418 -0.02393099 0.28814298 0.14692533 0.28243983 0.103795275 0.21426567 -0.14915752 0.6125798 0.07043374 0.07200712 -0.41729012 0.23025678 0.045329858 0.23657279 -0.025129976 -0.10441272 -0.15626155 0.19366564 0.029588087 -0.508139 0.2751288 -0.116172865 -0.14935061 -0.06513029 0.039040633 -0.05442614 0.18521613 -0.44871873 -0.28415585 0.27362287 -0.49928415 0.07146826 -0.016849143 -0.112085685 -0.43459657 0.0016051455 -0.22596076 0.02524319 -0.19827901 -0.29489326 -0.16442196 -0.18892492 0.23320204 -0.09456041 -0.1644875 -0.42757016 -0.038812257
29 -0.054481544 -0.095518276 -0.29630244 0.07685308 0.15529911 0.3332078 -0.14985205 0.25225523 0.24241592 0.05757589 -0.09494125 -0.15261315 0.0570919 0.18021935 0.057589155 -0.2420492 -0.07766154 -0.023720725 -0.36859977 0.03465046 0.042714108 0.14272463 0.35606718 0.23071536 -0.50833607 -0.5838127 -0.23172551 -0.1674212 0.07697134 -0.13062078 -0.35742572 -0.028458545 0.2601311 -0.14196204 0.349723 0.48145497 0.11582537 0.042802453 0.14237963 0.053743713 0.20631456 0.4225576 0.059705485 -0.16188991 0.2210425 0.102230705 0.050492503 0.66487736 0.032832015 0.47312933 0.03172934 -0.00406494 -0.07344766 0.103903726 0.16268508 -0.27988064 -0.013731382 0.15007094 -0.12605236 0.22870618 -0.3542246 0.19647242 0.10038214 0.099687494 0.37694463 0.37133735 0.04284033 0.238711 -0.19652231 -0.12488277 0.15752344 -0.02065358 -0.15943736 0.007835728 -0.2033871 -0.1591014 0.017168067 0.025969865 -0.05640303 0.2582678 0.1379508 -0.19321324 0.114296295 0.12314827 0.34605762 0.0002688563 0.20245458 0.1391132 0.29315966 0.1747048 0.11625859 -0.010292909 -0.00664911 -0.03925685 0.45396662 -0.022382786 -0.31321767 -0.14963105 -0.08806659 0.17375417 0.19702825 0.32035825 -0.36023623 -0.070204675 0.037590127 -0.56417304 -0.30530977 0.21732284 -0.5795972 -0.38477904 -0.039161537 -0.46126124 -0.24097769 0.08185992 -0.26314107 -0.07529843 0.01916436 0.1688957 0.115546145 -0.11967125 -0.3732428 -0.33425397 -0.09708541 -0.021045564 0.13476115 0.31715637 0.11166902 0.30031008
115 0.18130389 -0.10451024 0.11264948 0.5989022 0.29937297 -0.019879792 0.19320372 0.03665702 -0.3236544 0.3298183 0.3320706 0.34921184 0.060020268 0.09810468 0.16746283 0.32298005 -0.3414837 0.008353451 -0.17064118 0.3990803 0.12837045 0.37413335 0.4858032 -0.7633732 -0.48088053 0.08744732 -0.24302474 0.27260733 0.27413386 -0.20835055 -0.11800216 -0.020018457 0.13020131 0.2408331 -0.035017844 -0.103940755 0.69055223 -0.016297085 0.097911 0.16208093 -0.030304788 0.26220042 0.3090798 -0.49015617 0.27561182 0.0081168795 -0.4099201 0.011163361 0.15142831 -0.22096708 0.49510235 -0.3209928 -0.03568886 0.30435467 0.32406554 0.07682032 0.3212762 -0.13295594 -0.13367416 0.017645057 -0.04418453 0.18983503 -0.14392966 -0.00027317047 -0.2456418 0.23209609 0.103709616 -0.12989883 -0.15756312 0.2507126 0.15877603 -0.21261531 -0.27239844 -0.03951828 0.47238627 0.15713361 -0.17320646 0.05745216 -0.11091812 0.069754474 0.28150517 -0.028375993 0.10617479 0.13465743 0.1754537 0.07630328 0.013160894 0.34430522 -0.3149584 0.3801554 -0.015579504 -0.26321065 0.30655366 -0.2671159 0.10647391 -0.21742046 0.13925949 -0.061047565 -0.1529474 -0.10193885 0.26369238 0.21569648 -0.06483646 0.36497486 -0.20701507 0.06243412 0.05026895 0.010434429 0.14608084 -0.40554354 -0.10414477 0.054875758 -0.025667487 0.064142175 0.08484298 -0.34433666 -0.1130234 0.3544841 -0.10699937 -0.11720741 -0.3486386 0.08749128 -0.07279142 0.20584112 0.18391347 0.28472945 -0.25614977 -0.11456163
49 0.12706952 -0.034214582 -0.07764717 0.11951679 -0.054329522 0.1760949 -0.18965779 -0.13859811 -0.27875638 0.16769463 0.23179789 0.07784956 0.15157503 -0.31835878 -0.043402944 0.3389505 -0.12762284 0.0804451 -0.30106875 0.066831395 -0.2585882 0.07292776 0.32393906 0.080357336 -0.34533983 -0.016838703 -0.14214066 -0.2689297 0.049088698 -0.396645 -0.3563686 0.24740402 0.10956968 0.3181103 -0.20796525 0.3947036 0.35169086 0.46057633 -0.26969644 -0.106417276 0.20984322 0.12772223 -0.071577065 -0.15518154 -0.10742508 0.14025888 0.11129165 -0.49504456 -0.047975548 0.06426159 0.23147239 0.027706098 0.03171972 -0.044680774 0.15978722 0.17852448 0.09286632 -0.20810829 -0.2847328 0.27771255 0.022847986 0.32765502 0.23599018 -0.08419446 -0.17048045 -0.13711801 0.23937896 -0.092893116 -0.11576896 -0.109579995 -0.15047127 -0.2375212 -0.34282526 -0.3171261 0.095232114 0.23526582 -0.3055374 0.19958138 -0.254328 0.1575459 0.07760578 0.2111401 0.40614635 0.34060186 0.10113276 0.19009656 -0.26627257 -0.18143463 0.24091415 0.08850641 -0.27725646 -0.13646175 0.04023759 0.12713131 0.3904925 -0.069035105 -0.13498773 -0.19898726 0.14761837 -0.20516111 -0.5235109 0.4998287 -0.07975264 -0.10464584 -0.0018614234 0.021840218 0.31487435 0.3856476 -0.47527137 -0.53091 0.019370718 -0.28408748 0.10489577 0.064223394 0.26650387 -0.79535073 -0.17932732 -0.010028577 0.25882918 -0.15302974 -0.1457463 -0.4171833 -0.5286847 0.018665884 -0.0371607 -0.034208782 -0.63835955 -0.06576698
127 0.055671643 -0.49549136 -0.3717377 0.23537534 0.049230415 0.27263612 0.21638152 -0.26024577 -0.23776571 0.18564221 0.13269304 0.32361194 -0.0653641 -0.3036712 0.0037687062 0.54194343 -0.2919357 0.2556776 -0.38626704 -0.013804771 -0.39531317 0.31332 0.087725595 -0.16902183 -0.35489962 -0.19486214 0.035804432 0.17016907 0.14339261 -0.31987566 0.00659656 0.1958642 0.15737695 0.027202364 -0.17743444 0.66305184 0.190736 0.30742148 -0.28761593 -0.008686876 0.0757161 0.07257999 -0.37846005 -0.2510443 0.15774098 -0.08623501 -0.06868189 -0.24785689 -0.108375885 -0.023376847 0.1563436 0.07500499 0.21919139 0.15678912 0.4371692 0.37846452 0.23405784 -0.2678179 0.057048097 0.32751796 -0.11034365 0.5480219 0.1973019 0.38824293 -0.25696337 0.0035505525 -0.08115167 -0.011309923 0.09034465 0.05724035 0.29751283 -0.16624594 -0.020633409 -0.25250846 0.040936667 0.115652375 -0.35022947 0.39069968 0.18933345 0.54458845 0.104854286 -0.11649592 0.26117307 0.31855306 0.5118517 0.25374165 0.06627656 -0.055391576 0.4755777 0.00072881085 -0.106578976 -0.45299092 0.16956775 0.12855397 0.42402166 -0.0045138807 -0.43363386 0.18308835 -0.06209258 0.26243395 -0.3436282 0.4074915 -0.05663291 0.11211182 -0.021444889 0.08799693 0.20301135 0.20352064 -0.5664822 -0.12711725 0.0919629 -0.31782687 0.10078629 0.36493 0.022010451 -0.7034075 -0.014506026 -0.09817716 0.16098933 -0.11295664 -0.12506887 -0.3064192 -0.5346426 0.10409797 -0.117684975 -0.36341614 -0.5304795 -0.26124734
171 0.29528308 -0.12624915 -0.055802077 0.34368864 0.13939403 0.14592671 -0.030694455 0.002362493 -0.0045589437 0.12556006 0.6110846 0.4864819 -0.08476279 -0.25394315 0.11376843 0.50618505 -0.44265524 0.14691633 -0.24052238 0.23257594 -0.11970992 0.37294483 0.47318497 -0.81691253 -0.33087048 0.055427108 -0.24778154 0.15016958 0.03352582 -0.14714645 0.06786509 0.37454364 0.1849396 0.22754097 0.06435109 0.22511089 0.58811593 -0.034566443 -0.14373341 0.13279879 -0.17273371 0.31792283 0.30484462 -0.59464693 0.19048187 -0.102338076 -0.2720726 0.19437812 0.041138157 -0.14447966 0.5571507 -0.32228774 -0.108059295 0.03289013 0.18032518 0.37420768 0.6489481 -0.13196252 0.096923016 0.07978663 -0.09576269 0.24050201 -0.08719489 -0.07319937 -0.27670842 0.026928823 0.24739373 0.14917113 0.10686858 0.18735835 0.08979538 -0.27352604 -0.23562765 -0.3485277 0.32250714 -0.04872429 -0.2855205 0.13186207 0.1009192 0.084922716 -0.02021305 -0.07973157 0.47446957 0.18274805 0.14343937 0.121416375 0.31917852 0.3862912 -0.023393372 0.12069949 0.07365148 -0.4121856 0.31329846 -0.28804576 0.24873762 -0.019182391 0.17786941 -0.16102116 0.11172211 -0.30299723 -0.16801791 0.19627193 -0.09922077 0.4305951 -0.025744563 0.19168045 0.10550696 -0.24453212 0.07962202 -0.24985547 -0.07134132 0.3752765 -0.12888984 0.02989009 -0.086477414 -0.48820245 -0.22744636 0.42809102 -0.010369789 -0.19234565 -0.36185208 -0.10126366 -0.13908364 0.4384054 -0.18643057 0.32452336 -0.22074476 -0.2394491
247 0.1204506 0.32639697 -0.4464458 0.16674212 0.10582215 0.42595032 -0.17844087 0.23239963 -0.2290696 0.25341353 0.22636123 0.098026335 -0.04794871 -0.12056125 0.045662053 -0.07935099 -0.35045105 0.2424057 0.3160952 0.15570454 0.029516438 -0.1525329 0.17219424 -0.63841254 -0.67770785 0.032624856 0.269867 0.03203966 -0.15843725 -0.30479074 -0.006313969 -0.2192332 -0.27197808 -0.22417438 -0.30428493 0.21801132 0.25393194 -0.19233805 -0.038762685 0.46044546 0.042765714 0.0672301 -0.24200071 0.11468909 0.1886546 0.21806014 -0.11644914 -0.07915223 0.238606 0.18004769 0.14029957 -0.0036635518 -0.053148612 -0.06245133 0.19307135 -0.11646825 0.14330025 0.012679886 -0.31068707 -0.3631138 -0.37072784 -0.0778035 -0.11810808 0.34438726 0.31819987 -0.32444307 0.12489433 0.15761378 -0.062535085 -0.2764602 0.005279912 -0.22975229 -0.08242723 -0.22042432 0.13257535 0.15507485 -0.19466259 0.3858189 -0.04171797 0.34735477 0.38117075 0.10927904 0.13309506 0.2884411 0.264834 0.57210046 0.25172928 -0.73219436 0.7568397 0.32998356 -0.03929387 -0.1820468 0.2737111 -0.15879118 0.2328992 -0.019713715 -0.29640505 0.06727138 0.32434663 -0.29415065 -0.2695072 -0.07625821 -0.14908192 0.07263361 -0.25198683 -0.17679474 -0.18259579 -0.26025006 -0.39198723 -0.48064512 -0.04321401 -0.31580055 -0.04356447 0.08054406 -0.30552518 -0.21535401 0.1846732 0.14121507 0.34326556 -0.18092987 0.06157581 0.34871525 0.16336738 -0.13191277 -0.061836958 -0.28223047 -0.34408915 0.21336664
22 -0.027819775 -0.24236491 -0.29511335 0.16673328 -0.02837487 0.07518851 0.19893953 -0.26219067 -0.35534367 0.026691621 0.3911526 -0.0095731355 -0.037099272 -0.047970735 0.05314306 0.39781934 0.063008636 0.050650645 -0.04183312 0.09383523 0.15092804 0.34144065 0.5590294 -0.063161746 -0.23181154 -0.07421836 -0.0061081573 0.32140574 0.20207268 -0.13222545 -0.030570336 -0.1326132 0.06739534 -0.18983856 -0.20970203 0.2227408 0.6103689 0.34567115 -0.010834125 0.2146985 -0.04422498 -0.0658491 0.111237116 -0.53821725 0.063277155 0.29544187 -0.28112966 -0.21718837 -0.35363296 -0.16121958 0.14651841 -0.047160644 0.37908974 -0.2177251 0.1788896 -0.09053298 0.050505538 -0.23183803 -0.2559182 -0.18022156 -0.03215373 0.045802046 -0.0023260284 -0.026120791 0.15915564 -0.0888991 -0.12992564 -0.16161546 0.14641947 0.1701067 0.041185662 0.08369976 -0.29530716 0.06492103 -0.17928031 0.059310894 -0.12278656 0.532451 -0.18415077 0.263601 -0.008350627 0.1324902 -0.21994428 0.066491604 0.28423223 -0.31678298 0.10816242 0.2066053 0.03309672 0.06084987 0.08842879 -0.27361923 0.08317161 -0.27982038 0.54958504 -0.019862995 -0.11278029 0.23474266 0.11015764 0.1533749 0.32489786 0.25597867 -0.08298926 0.2741692 -0.03401346 -0.37537488 -0.042315796 0.21039829 -0.1705211 -0.24902593 0.13892664 0.084631264 0.19808508 -0.013551651 0.13292865 -0.2317156 -0.047252607 0.119910374 0.020826295 -0.38228986 -0.13303724 0.10140536 -0.4101911 0.11911034 0.22577359 -0.06533022 -0.5360112 0.18367793
10 0.11803358 0.1270538 -0.38610992 0.047045697 -0.052949753 -0.007437792 0.079917416 0.26390478 -0.06959164 0.1510086 0.16442372 0.1717078 -0.24480417 -0.020094547 0.13259779 0.0853194 -0.24873398 0.47352323 -0.055531826 -0.04667021 0.30261314 -0.017246788 0.089618124 -0.21194074 -0.4860103 0.016218923 -0.26351115 0.049626995 0.17901374 -0.002835825 -0.20479172 0.031880192 -0.0020240366 -0.061230883 0.12152164 0.26910624 0.15596327 0.32059798 -0.10391266 0.14984241 -0.12518404 0.019729847 0.25820735 -0.17714241 0.16700567 0.14843616 -0.096835926 -0.063511975 -0.17158021 0.11061217 -0.0073410366 0.07151659 -0.16907497 0.031710546 0.3261499 -0.2140921 0.17091332 0.124731824 -0.16648026 -0.045099173 -0.17360479 0.10357747 -0.029494153 -0.10355232 0.27636436 0.21022704 -0.1095178 0.02574709 -0.010283394 -0.12423178 0.10017812 0.028910415 -0.2631879 -0.07588735 -0.036710944 -0.11338546 -0.085925736 0.203762 -0.22083157 -0.021766413 0.31257102 -0.046050183 0.19470774 0.049858194 0.48877367 -0.122679316 0.2615488 -0.31844655 0.16001432 0.33059883 0.044146605 -0.30909312 -0.114286646 -0.46800208 0.34334046 -0.2873171 -0.051085897 0.078300335 0.13004743 0.11229055 -0.024000598 0.21847092 -0.11929625 -0.065537386 -0.12961715 -0.23107976 -0.40175724 -0.19442227 -0.38938642 -0.2622649 0.18257909 -0.21183667 -0.20800874 -0.015567827 0.043347 -0.10035644 0.14294328 -0.2155936 0.082408905 -0.16099946 -0.2008679 0.09621009 -0.106710255 0.020544013 0.0058010085 -0.17181894 -0.36800438 0.16324517
96 0.17016964 0.25645024 0.083813354 0.0996917 0.017873472 -0.015022121 -0.35856894 0.16047011 0.1655691 0.26006764 0.4063583 -0.04776593 0.173716 -0.08589084 -0.3254867 -0.16438045 -0.20693447 0.42642766 0.009213359 -0.18129402 -0.099151954 0.1673074 0.22614527 -0.18291664 -0.27306107 -0.17571816 -0.40233624 0.09870646 0.0023549441 0.17497426 -0.3574001 -0.057124376 0.27024072 0.12956378 0.13725829 -0.057985205 0.57472146 0.12264076 -0.30253556 0.17867686 -0.15706633 0.10838274 -0.09690206 -0.06045745 0.272782 0.0579689 -0.29688072 0.10908483 -0.032524325 0.25135124 0.44453993 0.17453314 -0.43759853 -0.1922455 0.1113929 0.44916114 0.20637003 0.3972229 -0.17722923 0.03225968 -0.14989558 0.20102102 0.066968754 -0.17137533 0.206824 0.054043006 0.23520027 0.07681135 -0.033453364 -0.04944421 0.048685193 -0.06977059 -0.27212927 -0.38299108 0.11599827 -0.15648213 0.18064918 0.106030166 -0.108217984 0.020459156 -0.051438324 0.077319145 0.004552406 0.22602889 0.115200296 0.2005557 0.4315446 -0.1439769 0.17124672 0.36950913 -0.16522744 -0.016545441 -0.07428515 -0.054503255 0.38929975 -0.22341482 0.03241667 -0.25577608 0.22678302 -0.06081927 -0.10911527 0.03275535 -0.039675802 0.084990464 -0.22393386 -0.0184288 -0.23916253 -0.25372133 -0.42473435 -0.31122315 -0.017068572 -0.23550251 -0.0567539 -0.026057472 -0.15990026 -0.37343246 -0.234078 0.1678923 0.2746117 -0.1474362 0.16905004 -0.15854469 -0.045166936 -0.20943923 -0.1294109 0.080806546 -0.031877287 -0.053505052
39 0.093321286 0.18933035 -0.29836547 0.13854852 -0.19804314 0.00019835414 -0.061400983 0.2920905 0.23383777 -0.041183252 0.008870768 0.0928686 0.00784636 -0.18015423 0.069066964 0.23429313 -0.17847031 0.3311836 0.15452035 0.15630795 0.095147036 0.02469842 0.11293303 0.1141118 -0.3443311 -0.064165786 -0.10955021 -0.031737115 -0.030993648 0.08744601 -0.06277455 -0.056501605 -0.072602704 0.20884384 0.06652944 0.5069112 0.33148265 0.06217779 -0.010159408 0.01957843 -0.038460787 0.24145411 -0.034977257 -0.11580142 0.2437215 -0.029860152 -0.012401153 -0.098326795 -0.11083454 0.09274389 0.08138166 -0.10536792 -0.11703456 0.062786475 0.32390773 -0.36272913 0.28661603 0.3734776 -0.33889163 -0.11192151 -0.1842628 -0.029450215 0.07262313 -0.15142718 0.32702038 0.15568827 0.029645974 -0.017872553 -0.068775065 -0.06962763 -0.107231505 -0.13941959 -0.16950443 0.079785675 -0.07768148 -0.32416332 -0.22361727 0.32875878 -0.5267494 0.12032907 -0.012986102 -0.07939261 0.17185928 0.029540123 0.34976774 0.030414015 0.18717086 -0.28899 0.49508137 0.5690839 0.0132587645 -0.1941613 -0.09920898 -0.14194122 0.1977177 -0.31486064 -0.40383747 0.19753857 -0.08362864 0.11430601 -0.2987938 0.2445509 -0.08820384 -0.06235917 -0.23824908 -0.22303826 -0.42832664 -0.22176093 -0.43202373 -0.31327993 0.04637318 -0.21013996 -0.021132313 0.056347415 -0.05336062 -0.092298135 0.04998126 0.018402394 -0.014062156 -0.11436223 -0.12850182 -0.095709346 -0.100488946 -0.06075341 -0.040361322 -0.5241951 -0.09337748 0.14348473
133 0.23817748 -0.13923684 0.47578835 -0.17302622 0.09090002 0.46051413 0.025763845 0.45450878 -0.4749286 0.39991271 0.196665 0.026070805 0.19778731 0.12484889 0.06958831 -0.10897981 -0.10350682 0.29075778 -0.34482688 0.21053997 0.060623053 0.28851718 0.1289537 -0.19072011 -0.31639874 -0.03243796 0.020397915 0.10588295 0.06696375 -0.07522631 0.117555015 0.14035293 -0.09361469 -0.105366305 -0.117007405 -0.0022809496 0.442901 -0.15094699 0.21022764 0.10469183 -0.4537799 0.11069587 0.014227088 -0.3327619 0.22998053 0.24519174 0.068040796 0.49521858 -0.37749228 0.33854213 0.09613752 0.26396462 -0.24441765 -0.057974946 0.33847705 0.250919 0.090755545 0.16247046 0.14095663 0.036641 -0.47608623 0.035555065 -0.26537707 0.34685156 0.4494009 -0.15349787 -0.09007732 -0.0065989583 0.042413402 -0.082919955 -0.12518895 -0.1394041 -0.19197989 -0.14651963 0.036495756 -0.2363249 0.40617937 -0.10565706 -0.12233236 0.24666634 0.3157198 0.3504473 -0.19043696 0.30771193 0.030005112 0.50013155 0.24849163 0.34203762 -0.023426667 0.15162979 -0.024787275 -0.25483537 -0.06980177 -0.023398338 0.26499844 0.16947928 -0.10129284 0.0074414522 0.031207887 0.004420597 0.061689455 0.21357207 -0.05787683 -0.042744838 0.03893759 -0.21178675 -0.09017471 0.5917364 -0.09601318 -0.170367 0.32007113 -0.5377872 -0.06989939 0.22347239 0.11278794 0.38649672 -0.038785912 -0.277494 0.11925765 0.100401156 0.024551122 -0.28510758 0.2694328 0.0010487416 0.080314636 0.48580462 -0.50096464 -0.028884096
229 0.02337464 -0.45608178 0.09129413 0.2636914 0.06235127 -0.22137626 0.18308508 -0.19614542 -0.55669606 0.46685076 0.14095898 0.1731355 0.14516081 -0.07646162 0.30527762 0.41963542 0.23791555 0.1963644 -0.25600606 0.40588006 0.53303677 0.4206551 0.12899384 -0.38791668 -0.20962964 -0.06320698 -0.35029858 0.4227326 0.39838248 -0.15764587 -0.19979115 0.0078597665 0.07468736 0.170893 0.008595288 -0.07926337 0.50942886 -0.01576678 0.32603613 0.51492095 -0.15545581 -0.07569525 0.34822738 -0.46345082 -0.10349686 0.035003662 -0.19328521 -0.016249727 -0.212044 -0.051085263 0.5320996 -0.27629772 0.2658146 0.0181961 0.2478785 0.23564729 0.35370556 -0.035037152 -0.20742792 0.034426007 -0.14501038 0.20579156 0.10928199 -0.039245103 0.12001528 -0.008924877 0.12679978 -0.19060083 0.035841145 0.0486269 -0.10470695 0.020032786 -0.16108449 -0.06874406 0.041176703 -0.36431605 -0.14377867 0.18609509 -0.42001504 0.21694966 0.08495836 -0.15354444 -0.017922934 0.29526904 0.23819631 0.11629559 0.26182383 0.101571284 -0.19698136 0.32754624 0.16891217 -0.4444948 -0.041860096 -0.49041006 0.34551567 -0.0011065415 0.062144652 -0.08980881 -0.1221353 -0.09209435 0.4808655 0.10686604 0.010896081 0.41768676 0.1470105 -0.27152616 -0.124637336 0.05128008 -0.055701137 -0.29311842 0.09081971 -0.019963244 0.066122495 0.12685019 0.27641204 -0.23899768 0.022324767 0.19191715 0.12582986 -0.3974648 -0.13366656 -0.10923339 -0.35970715 0.24232201 0.17824107 0.3568659 -0.2466911 -0.031585824
44 0.25107655 -0.072574265 0.10572607 0.39176106 0.31667197 0.47770452 0.080386095 0.2548631 -0.41967258 0.4976009 0.073762074 0.16742942 0.08370994 0.20084715 0.38781765 -0.10784968 0.04653163 0.3001175 -0.32334056 0.32766733 -0.2366967 -0.19792 0.5502977 0.029125273 -0.51235473 -0.24120475 0.05805193 -0.20751496 0.055131167 0.29179558 -0.30453324 0.07655228 -0.064652175 -0.3110273 -0.17951107 0.12195282 0.01084488 -0.39598095 -0.2438395 0.16246201 0.03596336 0.1738937 0.3154927 -0.1500339 0.38777044 0.06581737 -0.27609736 0.6881168 0.26727816 0.16316119 0.44336328 -0.14831217 -0.21737655 -0.25094873 -0.06183474 0.29668275 0.25333804 0.6419657 0.036752257 0.15128624 -0.1620752 0.30894208 -0.15643737 -0.11417081 0.43268958 -0.16968606 0.095700204 -0.09600722 0.064924724 -0.30313653 0.402126 -0.16919278 -0.23616503 -0.009191851 0.2676781 -0.093513876 0.08094853 0.26651385 -0.13290235 0.31336364 -0.046989314 0.018178023 0.0054760515 -0.020970013 0.04278929 0.33064458 0.3215034 0.15592167 0.084387414 0.17520928 0.03736931 0.19363342 -0.12399292 -0.20837842 0.20159209 -0.14229709 -0.11505946 0.1866933 0.025963318 0.2371184 0.13069487 0.10738331 -0.14035174 0.19922899 0.00769663 0.041220635 -0.05035007 0.6551649 0.118146785 0.04429309 -0.18307474 -0.15424913 -0.0916532 0.15517375 -0.27029288 0.1659881 -0.05673316 -0.03667147 0.22912541 0.17818272 -0.09810406 0.065964326 -0.121977806 -0.15814915 0.2872398 -0.08368798 0.031765845 0.098424986
170 0.22689702 -0.19674802 0.06299696 0.37056875 0.29506847 0.14862463 0.17209227 -0.16425782 -0.19868359 0.15268238 0.54873693 0.38450202 0.004374757 -0.19957359 0.114595495 0.45795137 -0.2729236 -0.016392339 -0.32996777 0.12996995 -0.27139357 0.16898538 0.5205137 -0.55107915 -0.32277748 0.08941932 -0.26724762 0.08906298 0.2077071 -0.14751387 0.17690383 0.3698308 0.031908147 0.19608365 -0.013993433 0.2105152 0.43796706 0.24504653 -0.46475774 -0.013192686 -0.02403256 0.39438054 0.006138954 -0.33429798 0.30067837 -0.14072347 -0.21544601 0.12655468 0.09572758 -0.088674776 0.33639273 -0.087891765 0.011953551 -0.052084677 0.012100304 0.35562512 0.44280788 -0.35567138 0.052927535 0.18712704 -0.04110395 0.29713988 -0.08297213 -0.21672359 -0.4172194 -0.020426663 -0.081781596 0.15040898 -0.0018448322 0.1782346 0.12624104 -0.2029163 -0.21247326 -0.22671025 -0.051598664 0.2925484 -0.14337479 0.19623172 -0.09263037 0.36183247 -0.023897927 0.085844845 0.41874257 0.27744827 0.22634535 -0.076638065 0.0136748385 0.29693404 0.17304738 0.14713773 -0.17412879 -0.44130084 0.4575283 -0.02968894 0.3026605 -0.15180919 0.12216203 -0.21202776 0.2135099 -0.03721095 -0.42671522 0.37486553 -0.2570966 0.19462542 -0.05563146 0.21273795 0.12198781 0.17078498 -0.3126326 -0.31454563 0.06320633 -0.13332006 -0.073642746 0.0027558065 -0.11695145 -0.6264713 0.014311567 0.03775491 0.2602361 -0.20236662 -0.29135165 -0.23833308 -0.38955873 0.0893586 -0.20456214 -0.0028916753 -0.66625863 -0.30602637
20 0.09897172 -0.2597808 -0.27613077 -0.05017491 -0.025144713 0.20451999 0.24842423 -0.20229556 -0.2453613 -0.07123197 0.2567607 0.04962875 -0.1626481 -0.52520204 0.06323221 0.21898419 -0.19836003 0.11139782 -0.14685914 -0.1658533 -0.15066338 0.24585658 0.46587455 -0.112589784 -0.29105404 -0.10231759 -0.19467293 -0.23354883 0.25979334 -0.36435872 0.043607686 0.05590871 0.07607371 0.34704134 -0.30200922 0.6156984 0.08081048 0.3329823 -0.35455132 -0.07550871 -0.17975901 0.20690688 0.0052809934 -0.49038428 0.02318019 -0.22296292 -0.38661417 -0.0026634417 0.027161857 -0.039299935 0.062803365 0.15843849 0.420229 0.045812417 0.06611806 0.1951815 0.34328458 -0.09978871 -0.16647767 0.084098294 -0.22759275 0.37826633 -0.0650421 -0.042944603 -0.17436798 -0.044726726 0.06891583 0.107834056 -0.06955398 -0.14039457 0.17761749 -0.11090963 -0.17281224 -0.48074546 -0.20548609 0.030313097 -0.28910986 0.49342382 0.11273058 0.7090041 -0.19928274 0.07878755 0.29770184 0.56089973 0.36006042 0.012816731 -0.03499831 -0.07115666 0.32941157 0.09827596 -0.177044 -0.4404014 0.4027467 0.18321706 0.5107217 -0.23815666 -0.15525132 0.03370988 0.09275219 -0.1979325 -0.38591304 0.25357127 -0.27279508 0.047174748 0.20187223 0.11554996 0.028816199 0.43061608 -0.4479765 -0.35762477 0.079182506 -0.13118589 -0.06526237 -0.20755205 0.019649081 -0.6086688 -0.04962478 -0.24429283 0.24425665 -0.051361572 -0.28037682 -0.7203827 -0.21565922 -0.13122661 -0.059131335 -0.32606304 -0.35117048 -0.30718112
158 0.3670445 -0.67078644 -0.36303434 0.6451572 0.1040181 0.461634 0.31813496 -0.36688247 -0.32929915 0.4021042 -0.10472601 0.56947476 -0.070723675 -0.3891406 -0.053938005 0.6549823 -0.56737036 0.2318211 -0.36309388 0.42731598 -0.41029817 0.45493674 -0.04185838 -0.4404206 -0.6565981 -0.2216359 -0.52037066 0.44273624 0.027728451 -0.09741413 -0.07947663 0.24334268 0.15234208 -0.19497499 0.022955408 0.5119574 0.25673735 0.001584418 -0.72684443 0.023350703 0.020943198 0.031126456 -0.6771287 -0.34322515 0.16020705 -0.32321852 -0.2526487 -0.30366302 -0.19245012 0.1207608 0.32788908 0.13643299 0.4297121 0.32905123 0.6342585 0.2937293 0.6318838 0.11646452 -0.061869077 0.38944218 -0.5736875 0.8416861 0.28867373 0.62562525 -0.010811292 0.05505481 -0.21719599 0.05181746 0.20657176 -0.17316404 0.43608737 0.012382787 -0.065873094 -0.28211802 0.11785934 -0.0950037 -0.5318091 0.555043 0.27742553 0.6631669 -0.10581117 -0.588605 0.23606238 0.60910237 0.89850664 0.46407565 0.09350267 0.15035932 0.0064431597 -0.07728478 -0.06024303 -0.6122287 0.16068149 0.50449824 0.39716414 -0.1544921 -0.8715972 -0.055020828 -0.30079824 0.49408102 0.094405994 -0.048781466 -0.12440923 0.23553407 -0.16309664 0.63596016 0.29579926 0.6693256 -0.5542031 0.08767268 -0.039271142 -0.43536457 0.40829405 0.54201216 -0.19618447 -0.5297514 0.19019072 0.02463026 0.61658186 -0.0038185203 0.1292051 -0.7514985 -0.90589166 0.060028568 -0.26579624 -0.5273131 -0.41611895 -0.19597302
